102 100
the -0.20207001 0.10159337 -0.03514838 0.15393992 0.31480473 0.2660578 -0.5514318 -0.16136561 -0.18442056 -0.3721377 -0.028097125 0.26005366 -0.6231094 0.3545438 -0.1805891 0.2113875 0.49602383 0.101415984 -0.4862784 0.3363684 0.41015837 -0.0851279 0.35321435 0.26800093 -0.22038125 0.32086608 0.102603935 -0.24770655 -0.19136663 -0.4043535 -0.037868667 -0.4382012 0.28677648 -0.029165165 -0.26450494 -0.37454745 0.043158177 -0.33650792 -0.21908855 0.08247348 -0.004801049 -0.09282344 0.0074584195 0.26571003 -0.015929999 -0.2867703 0.33351275 0.33040145 -0.04408464 -0.02419476 0.23195456 0.2709665 -0.053048734 0.12627275 -0.3969067 0.097606264 0.24803522 -0.34149003 -0.0671806 0.027245708 0.06571842 -0.526729 -0.063756 0.26791108 0.35725242 -0.10308957 0.25904205 0.07042752 0.12601113 -0.25884444 0.146235 0.29836473 0.1254355 -0.4105919 -0.17022447 0.58335936 -0.3080716 0.18176296 0.14170092 -0.32938728 0.2560163 0.37981272 -0.32081872 -0.045517735 0.056973115 0.036934182 -0.10564236 0.23806806 -0.34065682 -0.37503815 -0.18472855 0.3833905 0.25390384 -0.05639452 -0.49552503 -0.07108471 -0.068300456 0.48800728 -0.04192917 0.4603784
of 0.10271031 0.2325975 -0.045872316 0.17418037 -0.3566495 0.06503667 -0.18309489 -0.2218938 -0.33721274 -0.28780243 0.36878744 0.32448366 -0.16557354 0.20828742 0.33666423 0.54713446 0.038955037 -0.25209144 0.14887038 -0.023310265 0.084598474 -0.36220813 -0.034161072 0.14784202 0.4649688 -0.060079295 0.117710255 -0.0015930849 -0.17812964 -0.20269202 0.29306296 -0.018638344 0.29338378 -0.2601848 -0.099075444 -0.17950262 0.23713951 0.24434826 -0.36764118 0.17021573 0.038981266 -0.19886026 -0.3092307 -0.3543803 -0.43682247 -0.21541509 0.45967528 0.091668025 -0.11879468 -0.119698375 0.21499844 0.5210536 -0.40252805 0.33083498 -0.07075589 0.3921554 0.4060662 -0.22804345 -0.124147795 -0.018449636 0.11865677 0.034540676 -0.37275723 0.2691746 0.3854446 0.25253153 0.3485386 0.30170265 -0.02398813 -0.2516009 -0.19292124 0.23094855 0.104951836 0.19886921 0.46170783 -0.1963785 -0.2764206 0.16331486 0.3010389 -0.32450533 -0.28454384 -0.5133674 -0.14706783 0.18222165 0.010779997 -0.056155678 0.0072438917 0.5789209 -0.2835584 -0.4424427 -0.10561575 -0.2805317 -0.22409292 0.4431222 -0.011568547 0.30064514 -0.30194837 -0.5777064 -0.30232945 -0.017452538
influenza -0.14408867 -0.017217524 -0.29569063 0.03115745 -0.30733824 0.21787432 -0.008948862 -0.20965882 0.10869983 0.0055535403 0.30725688 0.009416392 0.105310984 0.17490086 -0.30139005 -0.126776 -0.089494996 0.28085375 -0.2735877 -0.02857629 0.21515755 -0.113663316 -0.25236204 0.20113778 0.11768765 -0.31723437 -0.4402856 0.40062112 -0.22214109 -0.15699588 0.21025163 0.1270918 0.15393254 0.11662836 0.13599645 0.11863862 -0.32404986 0.06712317 -0.07975969 0.4785283 0.036143202 -0.3178084 0.09083953 0.38449726 0.20051783 -0.25143856 -0.016019272 0.034197383 0.09207436 0.09765266 0.3303817 -0.10626168 0.074325174 0.22519018 0.15871875 0.33943796 0.27845114 -0.42509145 0.30772752 0.3933319 -0.33701703 -0.073523946 0.14999604 0.16686368 -0.14829919 -0.3717266 0.04154983 0.0853543 -0.37664866 -0.11465984 -0.3163722 0.08942248 0.071206905 0.15774156 0.20730007 -0.13141216 0.04230624 -0.32615754 0.23640363 -0.038098052 0.050239306 0.013574118 0.15326373 -0.08489005 0.02058895 -0.2218003 0.027348153 -0.13698335 -0.1221051 -0.05896378 0.21804988 -0.017817812 0.11806064 0.2173745 -0.108597696 -0.13964671 -0.2047932 0.07137129 -0.12665352 0.0045009283
covid 0.40263787 -0.22252002 -0.3504359 0.033584822 -0.60061157 -0.43698642 -0.1578973 -0.19975904 0.29744613 0.098437384 0.41137856 0.022619734 0.121143036 0.30903143 -0.17362241 0.046945684 0.03242976 0.57835895 -0.45825887 0.32043824 0.42276528 -0.037305586 -0.47949445 0.08249727 0.38371563 0.17519218 -0.643839 -0.20882313 -0.37293026 -0.34852287 -0.24220078 0.26394433 0.3128763 -0.14389789 -0.3382663 -0.03101816 -0.28617978 -0.00052910735 0.04361169 0.45677498 0.2967923 -0.37516555 0.45560035 0.3240008 -0.21084665 -0.12442001 0.3340334 0.17781635 -0.30836692 -0.3672832 -0.19808526 -0.17574498 0.15118779 0.32475954 0.23433328 0.3652996 0.4161384 -0.45002782 0.3387413 0.75967675 -0.40171877 0.22124457 0.1149191 0.33510086 0.15965006 -0.38590434 -0.021606496 -0.17312096 0.45081985 -0.40367088 -0.37549475 0.029521117 0.4908305 -0.0710735 0.27295604 -0.008444292 0.27419522 -0.5128437 0.27703625 -0.25592744 -0.17103983 0.10783602 -0.29029208 -0.19058056 0.349907 -0.2347789 0.43871412 -0.0052701137 -0.25934997 -0.20280758 0.5118367 0.39365914 0.107705735 0.30441758 -0.3538813 -0.5173826 0.248288 0.2886533 -0.122101486 0.14197412
19 0.40971488 -0.17589226 -0.34466955 0.359705 -0.18615896 -0.4649839 0.13627367 0.4681285 -0.1349018 0.3018171 0.4558726 0.13861118 0.40391135 0.28692314 -0.12629072 0.111187145 -0.44830072 0.36788398 -0.25813094 0.36344495 0.39870092 -0.35446563 -0.5269214 0.31725594 0.2798611 0.18749309 0.030317044 -0.31681922 0.0051009483 -0.31604743 -0.35360077 0.3301922 -0.36849284 -0.107882455 -0.3297849 -0.33694467 0.13945849 -0.50780123 -0.3281553 0.1076653 0.39953783 -0.17380798 0.30162084 0.082422264 -0.3962374 -0.05224795 -0.21512206 0.22785193 -0.3935891 -0.51440763 -0.080932476 0.117914505 -0.45912614 0.020003192 0.3902875 -0.22047776 0.08650347 -0.22267425 0.27219996 -0.09313372 -0.39291435 -0.4269571 -0.19175585 0.29922608 -0.41230074 -0.40937397 0.25835145 0.14744923 -0.00042476683 -0.16925867 -0.24034452 0.3051943 0.07188155 0.660032 0.059603676 -0.22544007 -0.04267769 -0.5494819 0.25604618 -0.4660797 0.17237917 -0.31108198 -0.38325736 -0.28312892 0.47314084 0.40824127 0.37993985 -0.04009923 -0.35212955 0.034349788 0.3980777 -0.00463498 -0.0070741726 0.6144706 -0.35537985 -0.41267326 0.19622411 0.33292323 0.219397 0.24723037
virus 0.105884634 -0.18787788 -0.3834696 0.14189425 -0.24595605 -0.35475174 0.06360361 -0.15903871 0.16200103 -0.1910805 0.34397778 0.44133112 0.27888122 0.2544965 -0.24231628 0.3262783 -0.17483613 0.3613577 -0.38883027 0.26665065 0.30011633 -0.06871016 -0.3995177 -0.07658826 0.2674477 0.46150428 0.19607083 -0.06806624 -0.04475686 -0.35247207 -0.2672098 0.40989777 -0.26733613 -0.01067726 -0.41918692 -0.08318735 0.35154015 -0.28768224 0.014255875 -0.0012715282 0.50994724 -0.2127046 0.27157623 0.43911257 -0.12306279 0.26795828 -0.016434085 0.37713835 -0.53278667 -0.40134647 -0.4984763 0.35905963 -0.065229975 0.081688 0.39265534 -0.21931843 0.18346968 -0.33184013 0.19798398 -0.29168665 -0.41451412 0.057723653 -0.12306978 0.3030781 -0.059834912 -0.2780219 0.20600426 -0.25846297 0.050101496 -0.3052284 -0.2142967 0.25863627 -0.23818885 0.05399596 0.2918234 -0.55321884 -0.16809914 -0.24929439 0.37918162 -0.36876157 -0.32512838 -0.021693531 -0.14341217 -0.08085043 0.19972144 0.18246149 0.042295013 -0.10951711 -0.49602488 -0.07577335 0.2160563 -0.05447413 0.3675226 0.084752254 -0.24977794 -0.32334656 0.30560893 0.1265853 0.017543787 0.4030757
for -0.106931664 -0.42885903 0.050454143 0.18062831 0.036139578 0.07993392 -0.13726683 0.15239084 0.19093303 -0.01890642 0.17671058 0.09777817 -0.15179531 0.09173256 -0.16784891 -0.1607835 -0.22349928 0.3295999 -0.081869505 0.37151763 0.20282581 -0.10239248 -0.47760615 -0.053379714 0.12517194 0.066089466 0.21704723 -0.27111903 -0.119263746 -0.16100264 0.08648765 0.24721989 -0.28486007 0.2734745 -0.07684615 -0.32968882 0.24317455 -0.3840165 -0.1257678 0.22362687 0.05680692 -0.26372093 0.19216612 0.30961555 -0.21147124 -0.17036134 -0.1354685 0.1397452 -0.19022802 -0.05500831 0.16534303 -0.015248997 -0.020494264 0.24684715 0.32772195 0.066267475 0.11149613 -0.37087765 0.27969733 0.29225665 -0.14082582 -0.27720255 0.13718887 0.3324295 0.021835601 -0.23126265 -0.024125561 -0.25083053 -0.22917923 -0.15580122 -0.31718215 0.23048306 0.20749083 -0.23664074 -0.15305158 -0.31721225 0.068474986 -0.297451 0.087236464 -0.37203696 -0.084076464 -0.0449212 -0.1693883 0.02987339 0.2291516 -0.25940478 0.23450841 -0.16286427 -0.026329586 -0.08166475 0.09762904 0.370565 0.24357627 0.20893702 -0.48778158 -0.25174865 0.28893313 0.19058244 -0.05674576 0.14905089
transmission -0.11025391 -0.044996 -0.062774576 -0.120971106 0.29905215 -0.1024984 -0.0980374 -0.026011933 -0.12336072 -0.11600916 -0.14120759 0.17715985 -0.009137027 0.24198814 -0.04693091 0.036728248 -0.48744795 -0.37620747 0.15686636 -0.082150795 0.25138122 -0.15770294 0.043653432 0.18178178 -0.33790213 0.11613905 0.33825833 0.19803438 -0.018743299 -0.12586926 -0.1400951 -0.07806268 0.35584334 -0.11678172 -0.5771844 -0.36513472 -0.085902095 -0.05613989 -0.21033378 0.3978158 0.47879547 -0.39842245 -0.009538905 0.1655215 -0.030266957 -0.2829521 0.36285922 0.22477645 0.035034936 -0.26893818 -0.094206706 0.121184014 -0.09834513 0.27186763 -0.12782203 0.3126878 0.43406817 0.12020212 0.025622062 0.1042872 -0.3575755 0.19062416 -0.23929295 0.07264295 0.3639373 -0.31846392 -0.023774566 0.0096783005 -0.48814788 0.21186551 -0.30697924 0.15402521 0.25445485 -0.28196394 0.1007005 0.1373816 -0.19241856 0.18022758 -0.10892833 -0.23545909 -0.40678096 -0.25814015 0.11866972 0.39121777 0.2437361 -0.08708098 -0.15498671 0.09784877 -0.057762805 -0.013220004 -0.35431817 0.33818582 -0.19043854 -0.2024375 -0.022014571 -0.1859384 0.1067611 0.26762262 -0.3600074 0.24771066
is 0.06907151 -0.0922798 -0.28607428 0.15461184 -0.029006531 -0.22965737 -0.4062257 0.2773802 -0.2995941 -0.41176835 0.42126933 0.28238642 -0.42965716 0.003633371 0.10244939 0.19650505 0.3847639 -0.0059986236 -0.03463604 0.03763097 0.23690495 -0.16433226 -0.4749732 -0.012377584 0.10459456 -0.029730108 -0.16389188 -0.018753892 -0.115555026 -0.15979433 0.16877083 -0.37481165 0.38229424 -0.13509753 0.046560597 0.0030464316 -0.16251872 -0.090756096 0.1972883 0.20279688 -0.03634963 -0.23494115 0.008375023 -0.10284897 -0.3661439 0.20013733 0.15968826 0.104930274 -0.25064242 -0.21039803 -0.053185556 0.33300388 0.1479528 -0.26561397 -0.21397449 -0.13742112 0.22786519 -0.16560847 0.38464525 -0.15122022 0.109802 -0.06840777 -0.34527513 -0.022837574 0.32556555 -0.2687572 0.12738886 -0.32284093 0.2374428 -0.08571214 -0.011086521 0.12465552 0.13184947 -0.014197062 0.22014248 -0.0032739686 -0.16023484 -0.046776164 0.34975377 -0.09723533 0.054921325 0.22506057 -0.014228185 0.12910663 0.281803 -0.2772926 -0.08955634 0.21948546 0.11712492 -0.21119034 -0.2435449 0.15714587 0.043445688 -0.010803185 -0.2516071 -0.18839954 -0.07474455 -0.15384665 -0.3520014 -0.029565206
to -0.44467774 0.038765676 -0.42445096 -0.18620715 0.1593466 -0.07735897 -0.41822386 0.15655558 -0.19166277 -0.1231164 -0.22489342 0.062207323 -0.003503806 -0.3122863 0.54859686 0.19075297 -0.12508947 -0.014040786 -0.11003466 -0.16490106 -0.37713397 -0.084797174 0.15565458 0.018533971 0.21095638 -0.010306485 0.5481371 -0.30082908 -0.24832611 0.15755135 0.16233681 -0.031845886 0.314495 -0.3838842 -0.42880386 0.19712664 0.31587273 -0.026778989 0.030774605 0.16945346 -0.37740678 -0.16612197 0.38890824 0.259973 -0.30452877 -0.06919427 0.13505433 0.21405272 -0.46839967 -0.44164512 -0.18334839 -0.23690096 0.234046 -0.0914506 -0.45494673 0.25443697 0.003546389 0.4801135 0.05231308 -0.46640757 0.17339113 -0.19398163 -0.33330604 -0.3147574 -0.012962884 -0.15427317 -0.2265271 -0.2742288 -0.35575166 0.09316964 0.14299251 0.36304542 -0.17106543 0.3353654 -0.19173142 0.009645301 -0.36823064 0.19583328 -0.25612456 0.3170881 0.12038504 -0.094758846 -0.2703661 0.23844533 -0.120315224 -0.23980385 -0.3083197 0.37194303 0.16104794 -0.16097543 -0.31758702 0.19053185 -0.02062774 -0.38018158 0.17874487 -0.2723337 0.29457834 0.19352539 -0.37979686 0.12778638
a -0.31806433 -0.09439756 -0.07433953 0.2647695 0.19530073 -0.096636824 0.06981843 -0.059850946 -0.37355855 -0.23934595 0.015287878 0.089952976 0.075232536 -0.16841857 -0.043085948 0.108873494 -0.3225487 0.0333998 0.31388518 -0.108840235 0.025359886 -0.14987746 -0.25047898 -0.31928113 0.29558417 -0.40764704 0.3819984 -0.09833106 -0.1606503 -0.17052752 0.25973657 -0.30881324 0.10147102 0.021868281 -0.087787904 0.039738197 -0.28489637 -0.109610915 -0.19483957 0.23173203 -0.12759629 -0.28633946 -0.2921641 -0.27762625 -0.22682212 -0.11653109 0.20196818 0.2666244 -0.27733043 -0.2184303 -0.024943426 0.079427406 -0.20138116 -0.3802098 -0.35401365 -0.047180224 0.24012901 -0.06284977 -0.009598204 0.102255575 -0.056686036 0.17875753 -0.19051357 -0.199065 0.2548356 0.09452085 0.12997358 -0.5441523 -0.18942522 -0.101989366 0.06426877 0.10573595 0.15592255 0.33263603 0.28486806 -0.23007956 -0.365555 -0.257586 -0.062467184 -0.21570604 -0.07804503 -0.12564263 -0.37642068 0.3367228 -0.15657292 -0.18824302 -0.37955362 0.051881697 -0.23572846 -0.42560628 -0.021927608 -0.20855895 -0.27147147 0.30635044 0.11498954 0.13331638 -0.040440828 -0.109093264 -0.2921505 0.16801378
and -0.36261505 -0.19434693 0.06409561 0.11725467 0.36734614 -0.19051464 0.25775683 0.1297447 -0.20051004 -0.3600788 -0.08756302 0.19066392 -0.22760954 0.2740787 -0.10646144 -0.033492822 -0.1312058 -0.06900023 -0.09059513 0.20720652 0.1642044 -0.20166384 -0.058223665 -0.2641736 0.14607777 -0.107163824 0.13799731 0.13760467 -0.23202416 -0.060590472 -0.23044549 -0.12090897 -0.20378858 -0.15826571 0.05934908 -0.3818126 0.4139039 -0.07180924 0.006165992 0.010165885 -0.0070959623 -0.19621046 -0.1334082 0.32380036 -0.21845016 -0.34393403 0.097092055 0.1066149 0.1000695 0.10701578 -0.078842066 0.11658278 -0.007423443 -0.055545002 -0.090485685 0.32548207 -0.010525812 -0.22330494 0.11245829 0.13070151 0.045486517 0.03916706 -0.020032117 0.09879815 0.17327443 0.009093042 -0.016797109 -0.08483472 -0.20097613 -0.06064574 -0.2223653 -0.04222792 0.3918721 0.028060671 0.17598721 -0.23044316 -0.058744416 -0.07947443 0.22221583 -0.00014761802 -0.29102433 0.000982348 -0.22165671 0.15588513 -0.14805718 0.12549973 -0.0803671 -0.09552863 0.038960263 -0.1759088 0.26305643 -0.2501251 0.44499716 -0.22724627 -0.04581726 -0.3041791 0.13516577 0.20170256 -0.19810098 0.40982375
between -0.13844232 -0.39448622 -0.0057258657 -0.14405487 0.14144173 -0.33065265 0.091125056 -0.19805145 -0.24943863 -0.29667088 0.14409505 0.15330549 0.13176514 0.1984549 -0.04813829 0.05564288 -0.047035087 0.13481101 -0.28668508 0.3027449 0.22167699 -0.24229455 0.12333004 0.20028506 0.19253321 0.07209363 -0.007254234 0.05471121 -0.2778157 -0.0036472233 -0.24101515 -0.083878726 -0.029817754 -0.37896243 -0.1439891 -0.13868013 0.211377 0.16914134 0.11822097 0.012072103 0.063137315 -0.23920824 -0.13399923 0.21645942 -0.15942608 -0.2426384 0.39316684 0.092726946 -0.31682232 -0.15145229 -0.27086908 0.09054465 -0.26072553 0.25685123 -0.1135173 0.35126778 0.07732026 -0.0010520444 -0.103733905 -0.15769956 -0.08410492 -0.046954677 -0.20133473 0.17885531 0.3760008 -0.20612116 0.19275376 -0.08050902 -0.004970535 -0.09590404 -0.098833375 -0.028748754 -0.24214426 0.08411787 0.2729735 -0.06715049 -0.31564555 -0.06520769 0.29876328 -0.07841412 0.08045645 -0.1049048 -0.110446356 -0.1336102 -0.29823256 0.18621364 -0.019875532 0.21463093 -0.1997393 -0.25803566 -0.31060028 -0.15587677 0.085569434 -0.15708065 0.115721546 -0.08460292 -0.10677495 -0.27002716 -0.27721167 0.30965644
time -0.16202691 0.11650166 -0.013283345 0.2760761 0.15603818 -0.01000876 0.23910974 -0.4528557 -0.35887697 -0.23097534 -0.2989667 0.09582161 0.09531103 -0.039202657 -0.022287017 0.2707595 0.037178636 0.06518778 -0.2592167 0.23868953 -0.09771811 -0.3836112 0.2559599 -0.11903021 0.11843399 0.06478571 -0.09689394 0.33836657 -0.16792154 -0.022339275 -0.33138114 0.002536214 -0.32558727 -0.3646517 0.24775545 -0.38493398 0.0819348 0.2267161 -0.1120602 -0.3339485 0.18345712 -0.10685665 -0.43735972 0.35664836 -0.1853137 -0.31135035 0.019516345 0.07484393 -0.062391285 -0.0033149337 -0.40567026 -0.07299929 -0.13459559 0.29691303 0.043842606 0.088761576 -0.13609156 0.05112364 -0.25056747 -0.19567744 0.04657378 0.06636057 -0.08767255 0.24844058 -0.055570208 0.15067333 -0.100543834 0.24178705 -0.02112842 -0.3029315 -0.044649933 0.013170626 -0.013121943 0.16750729 0.20852205 -0.08786149 -0.092000514 0.21951835 0.07793488 0.02131782 -0.16666637 -0.19534312 -0.17133912 -0.43322292 0.07262818 0.118352786 -0.10836412 0.15020363 0.11988944 -0.334422 -0.0011244131 -0.40327662 0.1743594 -0.055634413 0.1823994 -0.016330997 0.11945191 -0.016640238 -0.3231323 0.38832265
serial 0.26607105 0.41523537 -0.20459673 0.41844726 -0.2599833 -0.2552412 -0.0148663195 -0.0863654 -0.3761306 -0.21479432 -0.041590992 -0.015451269 -0.01536771 0.18335836 0.020500472 -0.04990815 -0.17220087 0.37177742 -0.28423566 0.09419791 0.24030985 -0.3037388 -0.31277505 0.34349212 0.34810975 0.22626486 0.039672617 0.2242158 -0.416801 -0.34408072 -0.30908477 -0.16942646 0.17655648 -0.3283073 -0.014406441 -0.3015754 -0.31778225 -0.16595958 -0.039404653 0.19911876 0.054537155 -0.30636743 -0.0005399053 0.35246602 -0.23238531 -0.25836405 0.31770483 0.3855441 -0.17354764 -0.38653 -0.058170673 0.31671062 -0.14333819 0.22227904 -0.08084293 0.0042104176 0.38992554 -0.295667 0.25452492 -0.21923783 -0.049700193 -0.09923533 -0.32026398 0.24473937 0.3631859 -0.27486253 0.30810183 -0.027797805 0.28651237 -0.3329632 -0.2623749 0.19780652 0.16852336 0.17116018 0.25177547 -0.04217916 -0.32591435 0.19191532 0.17958938 -0.034840867 -0.24213022 -0.2139183 0.04044759 -0.26584896 0.32682738 0.23797323 -0.18415812 0.31580183 -0.33861673 -0.341287 -0.077909544 -0.1486093 0.36817536 0.23076695 0.229373 -0.38924 -0.07500378 0.114156716 -0.36284274 0.27382362
interval -0.06465847 -0.18956997 -0.19379197 0.23265819 -0.15885273 -0.21485664 0.054381184 -0.11421701 -0.1795258 -0.2959884 0.09919917 0.24400112 0.04787645 0.34300202 0.013719587 0.32136783 -0.13235475 0.2244942 -0.15054111 -0.09867748 0.29281378 -0.12156867 0.06358725 0.22589682 0.21991763 0.3144925 0.24224754 -0.027846916 -0.18970369 -0.2812718 -0.17971624 0.05462075 -0.32418668 0.044509772 -0.30594516 -0.2599484 -0.08599977 -0.24137734 0.13636687 -0.17700401 0.2932101 -0.23765786 -0.007552992 0.34071112 -0.10480202 -0.15012048 0.14044884 0.100986935 -0.2655162 -0.24408546 -0.36156592 0.3384155 -0.26324075 0.05167511 0.10300231 -0.16054147 0.15352099 -0.19961725 -0.14776625 -0.3691606 -0.19278917 -0.10593457 -0.21189858 0.09270435 0.18946694 -0.12538846 0.37164363 -0.18325675 0.008660509 -0.33189052 -0.041100416 0.17434743 -0.4481444 0.29644978 0.1360892 -0.30277658 -0.30150896 -0.09909508 0.19648279 -0.1048929 -0.2255502 -0.13736182 0.07753808 0.1243 -0.0029838276 0.31720886 -0.21467331 -0.04805192 -0.3814251 -0.3593059 0.0010089834 -0.3349524 0.24315035 0.12543057 0.03602317 -0.05006415 0.2815232 -0.13933438 -0.18960302 0.3295508
than 0.22101577 -0.2639699 -0.18271892 0.033977147 -0.1504051 -0.23301463 0.1729753 0.1463603 0.23928198 -0.07209933 0.31219 0.025698386 0.2976172 0.09512299 -0.087358184 -0.011657649 -0.08328219 0.38414824 -0.13418376 0.23962077 0.15984571 -0.16637667 -0.22965904 -0.20068333 0.062391162 0.0639334 -0.02523361 -0.2352862 -0.14502504 -0.19686133 -0.19660826 0.24324596 -0.19617611 0.20136182 -0.11742759 0.15503779 0.10255102 0.030949356 -0.08129568 0.017074717 0.22271767 -0.10864664 0.28023985 0.19123264 -0.29035735 -0.17019525 -0.17131355 0.15202701 -0.24431336 -0.2769629 -0.12730475 -0.18733059 -0.005061929 -0.06376743 0.3530869 0.17442425 0.014933823 -0.3127372 -0.07406659 0.0336602 -0.37465194 0.045094207 -0.019858584 0.3140112 0.01169853 -0.11715697 0.031829238 -0.030140767 0.0036698312 -0.12434058 -0.11360555 0.022501111 0.0147569915 -0.084957294 0.36596042 -0.1390265 0.25075686 -0.4467995 0.2957513 -0.21665283 0.051806048 0.022720128 -0.36925474 -0.11638796 0.2869936 0.07180482 0.27869037 -0.004978119 -0.15213333 0.12550943 0.2828488 0.21340917 0.28412503 0.18218431 -0.2404765 -0.30706164 0.122538686 0.16026391 0.2368509 0.18531695
be -0.042718057 -0.22770375 0.12546854 -0.13872054 0.2798818 -0.059942327 -0.46816733 0.16158485 -0.37365076 -0.16882995 0.12215275 0.30573425 -0.31689695 -0.23123898 0.1593773 0.15191226 0.21692634 0.16575496 -0.100725204 -0.091577984 0.30330068 -0.0036723954 -0.2921609 -0.44058353 0.3750262 -0.38507617 0.27273676 -0.14173383 -0.25767764 0.0070271175 0.22591436 -0.37938222 0.22345947 -0.35839388 -0.20556417 0.34940982 0.3240916 -0.40209287 0.24908662 -0.028495518 -0.48225445 -0.22187088 0.15398799 0.07337667 -0.3319768 0.22791968 -0.097656764 0.19399053 -0.3177914 -0.2535528 -0.13845496 0.22412008 0.22465126 -0.3050189 -0.45677978 0.0725992 -0.037448127 -0.05746907 0.30381587 -0.15075779 0.38841847 0.085876815 -0.36523396 -0.1943652 0.19692798 -0.25122485 -0.09754847 -0.2686797 -0.33132362 0.39411676 0.098103434 -0.22422795 -0.12725668 0.36545858 0.14972487 -0.3014616 -0.22333546 -0.29972693 -0.015556738 0.16471627 0.0031723455 -0.1529812 -0.25315192 0.13547567 -0.35540247 -0.08619962 -0.41201198 0.09122622 0.105901666 -0.02934288 -0.26194957 -0.14303854 0.2970718 -0.41575316 -0.13031828 -0.1367919 -0.03904256 -0.28484702 -0.23496155 0.27063236
5 -0.18523486 -0.46913028 0.04174563 0.064305976 0.09244405 -0.33037767 -0.302593 0.2783958 -0.3037254 0.006448105 0.19452552 0.27682373 0.010116695 0.25854245 0.33150366 0.06958237 -0.14491387 -0.056195106 -0.07862852 -0.13763392 0.28103906 -0.1685051 -0.35239926 0.20388411 0.09195784 -0.24584973 0.26812398 -0.29829884 -0.30412063 -0.029261325 -0.036159266 -0.13869411 -0.062494986 -0.327958 -0.10939576 -0.07573491 -0.19111896 -0.38603276 -0.22846763 0.07518015 -0.002625499 -0.26224953 0.22768871 0.29617062 -0.2966509 -0.24690318 0.100036144 -0.22779258 -0.007974627 -0.20865995 -0.16727962 0.30202055 -0.08370302 0.1897792 -0.018547088 -0.010841794 -0.01579268 -0.004580517 0.20601834 0.022262169 0.005092041 -0.23144394 -0.33311582 0.015300349 0.10398941 -0.16894467 -0.12763338 -0.4867164 -0.30297172 0.11353277 -0.259844 0.25612742 -0.27372158 0.17401838 -0.07891717 -0.22558999 0.04056037 -0.28608096 0.15168561 0.018229097 0.27921915 -0.052953184 0.23665152 -0.087597646 -0.06529315 -0.3023334 0.15804571 0.047749106 -0.27066293 -0.14304306 -0.08469155 -0.2690588 -0.006414403 -0.014982524 -0.14771517 -0.21682893 0.38606563 -0.18789117 -0.25626966 0.032195296
days 0.013445255 -0.3556069 -0.10367956 -0.08470124 -0.36064944 0.15220097 -0.4401459 0.031836182 0.07151651 0.09161688 -0.2664458 0.24920063 -0.25203732 0.18832718 0.36112678 0.012644223 -0.4132423 -0.2785811 -0.151917 -0.27445742 0.040389203 -0.22449708 -0.3346719 0.31500143 0.014122263 0.116015054 0.08480462 -0.19638008 -0.20059104 0.10032247 -0.1553984 -0.18099396 0.30932042 0.015856251 -0.13742813 0.11987104 -0.19502962 -0.34807763 -0.10397949 0.09731628 7.089876e-05 -0.10883276 0.3205532 0.029085703 0.005984399 -0.105487496 0.16065086 -0.1668 0.27840552 0.13532318 -0.095540956 0.09370389 -0.23042166 0.03843922 -0.23766431 0.08397128 0.049571984 -0.020639554 0.11425332 0.20612599 -0.48213896 -0.09213885 -0.18255983 -0.14224271 0.3164619 -0.29959235 -0.05153879 -0.08962809 0.09710142 0.10519835 -0.37091628 0.33550504 -0.21998736 0.23050018 -0.11742064 -0.35855442 -0.08488922 -0.43378127 0.14219403 0.11250553 0.16535975 -0.18597521 0.41642505 0.39682505 0.09114237 -0.46041098 -0.04057255 -0.02496827 -0.3134678 -0.28193897 0.1163777 0.21618211 0.02025845 -0.24592787 -0.11835816 0.0755108 0.31975728 -0.23109998 -0.28294978 -0.11481123
– 0.01816078 -0.048596818 -0.22847082 0.18158332 0.28859416 -0.006596165 -0.1732635 0.014235866 -0.20099443 -0.21976133 -0.058577057 0.22454262 -0.2168126 -0.039119545 0.20453872 0.015367981 -0.12250966 -0.26297274 -0.035983823 0.0044485526 -0.11179872 -0.2096366 0.059301153 0.045607626 0.024591899 -0.052791186 -0.098518245 0.06048337 -0.017329259 -0.24823256 0.07846449 -0.083358176 0.28331226 -0.055562194 0.12674248 -0.14532693 0.28216925 0.15927663 -0.06551956 0.18155657 -0.03873505 -0.040130842 -0.123093836 -0.04567266 0.018648153 0.08434463 -0.06527736 0.32283813 -0.08842859 0.038496833 0.05139358 0.1772045 -0.10580085 -0.06787436 -0.3226068 -0.10857687 0.30797413 0.00050024234 0.15284328 -0.27961376 0.0012324221 -0.0063327546 -0.38848144 0.01841136 0.15801522 -0.056474756 0.3970933 -0.35120556 0.18158421 -0.16640303 0.03196052 -0.2094686 0.18736602 -0.20079772 0.090408094 0.022314496 -0.3353111 0.29528627 0.3162048 -0.159446 -0.21279356 -0.09574208 -0.32859215 0.1172101 -0.0037483377 0.21383215 -0.04405615 0.13889231 0.14284293 -0.058898184 -0.21233507 -0.2613655 0.39096743 -0.05449843 -0.057734057 -0.07364046 -0.084912546 -0.013913579 -0.11091539 0.21753913
are -0.18199053 0.15013215 -0.1762765 0.2232888 0.05193224 -0.05554052 0.16142043 -0.3954104 0.20764376 0.2530102 -0.0990235 -0.17488326 -0.40473232 0.18302032 -0.12873468 -0.2366932 -0.12451632 -0.13356909 -0.22982854 -0.29221094 -0.06656725 0.17648318 0.023735099 0.16159868 -0.27524006 -0.41006264 0.031083725 0.1057665 -0.042070292 0.08348316 -0.25059575 0.1080131 -0.086680464 0.231765 0.35193604 -0.12510687 0.04058844 0.42822164 -0.037569366 0.044541277 -0.016639194 0.23181906 -0.056036733 0.24252637 0.2755547 -0.33246964 -0.2170771 -0.08981258 0.27718046 0.30431828 0.025008885 -0.2782012 -0.26106337 -0.24904177 0.32074633 0.18763828 -0.18466957 -0.3057388 0.30100933 0.19972809 -0.20069723 0.20607515 0.10284329 -0.20067912 -0.14310405 -0.36619645 -0.2896592 0.083022684 -0.31992954 0.18243185 -0.17295283 0.25361508 0.010334757 0.04856548 -0.18145712 -0.41792995 0.30976105 -0.17344344 0.18888444 0.06358852 0.047414307 -0.14711323 0.08874337 -0.18256527 0.13131207 -0.2830418 -0.029935187 -0.19746585 0.27757952 0.10843379 0.4254324 -0.061971985 0.29256758 -0.091230154 0.19598614 0.041161567 0.00076639606 -0.0040746974 0.30406392 -0.089340314
viruses -0.3136179 -0.16127658 -0.29397467 0.1879304 0.25271684 -0.039514754 0.17223854 -0.20531075 -0.37314636 -0.15133952 -0.08190154 -0.06813558 0.04995103 0.23211746 -0.32933348 -0.14887269 -0.261395 0.15190995 -0.24723957 0.31679133 0.13911963 -0.01915372 -0.07819914 -0.19109553 -0.14180851 -0.2251793 -0.06286848 0.12337895 -0.14249606 -0.1261127 -0.037892815 0.04339255 -0.09514241 0.14494608 -0.049168423 0.012981735 0.005702324 0.07797819 -0.20506138 0.009964841 -0.070013516 -0.16338341 -0.41441658 0.03468504 0.10209809 -0.2956997 0.32097092 0.09777218 -0.14672284 0.15129416 0.08448993 -0.14632913 -0.33686095 -0.01817441 0.3613324 0.27519545 0.16090687 -0.17590767 -0.20781012 0.17981233 -0.3404585 0.21830685 0.26066878 0.01540507 0.19596043 -0.2959694 -0.26678857 -0.24325837 -0.30443147 0.015698256 -0.12188992 0.08380018 0.24689011 -0.0070208427 0.16982996 -0.1852314 -0.19759901 -0.19781667 -0.03591479 -0.08320847 -0.12878902 -0.1783238 -0.2589965 -0.04183852 -0.19919845 -0.15198693 -0.30637386 -0.2360029 -0.19256568 -0.16934793 0.18023084 -0.32019868 -0.013270782 0.0960869 -0.04564013 0.15916055 -0.26446465 -0.104170606 -0.25042036 0.25488698
shorter -0.2718154 0.14438546 -0.0070729777 0.09427099 -0.19777492 -0.062444035 -0.14751583 0.020241946 -0.23709777 -0.17454933 -0.09114241 -0.1411801 -0.16953583 0.015237374 -0.11098041 -0.11714527 -0.08158637 0.36122537 -0.049969766 -0.06428882 0.038229574 -0.13045356 -0.12949537 -0.23271662 0.079939485 -0.03423944 0.26801142 0.18678188 -0.0038268452 -0.2291787 0.16366625 -0.158825 -0.08468506 0.29083174 0.06496012 0.16300547 -0.3695196 0.052783363 -0.10005166 -0.0296218 -0.32549503 0.046979852 -0.1068284 0.24670151 -0.05506784 0.13357812 0.18999523 0.28695378 -0.19888647 -0.27867147 0.0016534451 0.28711095 0.2724703 -0.03105388 -0.16491175 -0.28729182 0.2120745 -0.2963823 0.001828442 0.016978212 0.21481225 -0.13925798 0.021372339 0.059490576 0.1209561 -0.16571765 0.048543874 -0.36829543 -0.13227867 -0.19036123 0.17587201 0.02932365 0.17131232 0.015478014 0.040668316 0.2710781 -0.35696495 0.1055504 -0.010035493 0.011235142 0.027161296 -0.036366355 0.03621547 0.14523144 -0.051545747 0.18926969 -0.3648515 -0.21306908 -0.3443462 -0.19503386 -0.11702054 -0.3419593 -0.082450464 0.03442989 -0.0018901723 -0.009144383 -0.17796522 0.34027243 -0.2488459 0.13790308
from 0.079721846 -0.2769203 -0.29855508 0.31347322 0.026839297 -0.2831946 0.22135623 0.04835168 -0.23156448 -0.089531854 -0.039388668 -0.11214409 -0.015176019 -0.17813382 0.17352404 -0.13478853 -0.24954307 0.065102264 0.025184954 -0.1379437 -0.13376002 0.0027980981 -0.065222174 -0.0072448775 -0.061304063 0.15206689 -0.18764801 0.3243128 -0.14375821 0.04661803 -0.15974048 -0.09200494 -0.08797829 -0.33124298 0.031906314 -0.1008958 0.24698012 0.13977411 0.2195063 -0.363272 0.35016605 0.03573297 -0.12698399 -0.09519031 -0.15033884 0.26531383 0.15568855 0.18136075 -0.26032415 0.086187996 -0.08191916 -0.02943386 -0.03937379 0.08703248 0.07556796 0.028155483 0.14632308 0.12144074 -0.1335517 -0.19360296 0.04679258 0.063990906 -0.13970008 0.12510122 0.094850816 0.12441539 0.27439073 -0.21532694 0.06347964 -0.030652987 -0.047129843 -0.106972076 -0.24122138 0.16508614 -0.22470552 -0.08442841 -0.27499273 -0.11921203 0.11455396 -0.13180162 -0.02107815 -0.22400823 -0.25546965 -0.3156311 -0.27510744 0.14124243 0.12163997 0.057173323 0.12436182 0.10788129 -0.14775142 -0.42379522 0.17428191 -0.26711982 -0.09120811 0.15012226 -0.23660463 -0.3943354 -0.05970678 0.36383057
appearance -0.07487006 -0.1565593 -0.25543267 -0.14584821 0.34423208 -0.35199448 0.2361937 -0.23502801 -0.295297 -0.3338655 -0.010037796 0.33177873 -0.2069056 0.04519985 0.062053017 0.07821716 -0.24633984 -0.097681895 0.10312299 -0.07470986 0.011546363 -0.17111814 -0.18753394 0.18428966 -0.028348874 -0.0074258223 0.102650255 0.28531772 -0.108053714 -0.10363863 -0.065687254 -0.29371175 0.33036375 -0.35172504 -0.012350393 -0.2439511 0.4063608 -0.05547072 -0.1988633 0.12617101 0.29748753 -0.31201902 -0.009054088 0.13884154 -0.04197596 -0.008710272 0.18631762 0.2889112 -0.10835345 0.022334363 -0.13194108 0.15302527 -0.13885081 0.0953364 -0.30424833 0.15812914 0.25232306 -0.0046163653 0.1945257 -0.1172254 -0.072551735 0.044635475 -0.23316094 0.21437629 0.062934496 0.083350144 0.19606788 -0.11724052 0.18758993 -0.08287184 -0.12930638 0.14427426 -0.12958544 -0.015823333 0.1150718 -0.13234511 -0.24949591 0.12361305 0.10823734 -0.07256655 0.0045809965 -0.16936772 -0.13825265 0.0988786 0.23033273 0.15886578 -0.35504487 0.36472735 -0.030447325 -0.2996553 -0.14034648 -0.021136345 -0.15587556 -0.36573187 -0.12910606 -0.24143828 0.16562785 -0.035063293 -0.23393741 0.28970093
symptoms -0.22734284 0.1224254 -0.36975062 0.10926443 0.010491702 -0.15751393 -0.25241643 0.10587345 -0.22250147 -0.277586 0.021962466 0.2254491 -0.38955495 0.12128985 -0.035307873 0.12251844 -0.08636027 -0.005840708 -0.15061833 0.019427644 0.15233324 -0.2598084 0.08691869 0.09664985 0.16068725 -0.08428169 0.24703705 0.0052128616 -0.17062896 -0.26532435 0.031514887 -0.34598643 0.30269283 -0.13258636 -0.2583073 -0.2719012 0.007226154 -0.06928821 -0.18589377 0.28219685 0.12509713 -0.13162081 -0.04757993 0.028079318 -0.3705842 -0.31127805 0.33233982 0.3340188 -0.30386466 -0.26761752 0.059675183 0.29124123 -0.16431381 -0.007390488 -0.3506325 0.1125704 0.21605964 0.12915175 0.21891253 -0.0046590935 -0.18114688 -0.29617375 -0.31289464 -0.02861064 0.31313634 -0.0855861 0.15163246 -0.2329845 -0.21504498 -0.3643117 -0.2728138 0.27838987 -0.073005855 -0.014920394 0.0078504775 0.16294858 -0.41602626 -0.20149793 0.09607784 -0.24914902 -0.1869952 -0.23001829 0.034224853 0.2377807 -0.02074679 -0.13139229 -0.21079335 0.09045725 -0.12620047 -0.37265497 -0.32952774 0.1382276 0.18788974 0.12433797 -0.16107787 -0.03660213 -0.20785043 0.08306937 -0.28139573 -0.03851196
while -0.30720758 -0.12607291 0.14296548 0.090873316 0.12570569 0.205751 -0.02249679 -0.18264209 -0.26676348 0.16936152 -0.021432733 -0.07200914 0.10557771 0.22941624 -0.105235875 -0.18799067 -0.02454367 0.25930926 -0.11995217 -0.2583466 0.10493193 0.06347201 -0.059353594 0.13739184 -0.24409077 -0.2549678 0.14450513 -0.02585837 -0.29083264 -0.04646078 -0.003889511 0.17866103 0.046511874 -0.06447231 0.020085607 0.15912989 -0.2625419 -0.21583365 -0.000728865 0.050804336 0.16596974 -0.09568067 -0.016284706 0.1557129 -0.096815914 -0.31242695 -0.070202224 -0.26176977 0.22352196 0.15409578 0.1339285 -0.10291462 -0.015232939 0.1794553 0.13567974 -0.038833696 0.20265028 -0.30738896 0.13111459 0.42342937 -0.23616448 -0.007877123 0.17684785 0.19984275 -0.098232426 -0.1291954 -0.22931182 -0.17575681 -0.32685187 0.12969944 -0.16567387 0.22260544 -0.0820647 0.11565982 -0.09193987 -0.29733667 0.14266221 -0.1875943 0.064777836 -0.020301668 0.15814401 -0.20415908 0.005402527 0.124374375 0.0408682 -0.39744288 -0.19392197 -0.20632865 -0.14309867 0.051727656 0.03125418 -0.07734059 0.24118376 0.2395334 -0.28237557 0.19042851 0.27027994 -0.08482682 -0.054300856 -0.00820126
3 0.30380124 -0.12340425 0.028510666 0.32723144 -0.29954526 0.054348554 -0.15276363 -0.1993286 -0.28704953 -0.12661447 -0.12261501 0.121729724 -0.25903603 0.20035951 0.4149352 0.17342128 -0.09366464 0.28441063 -0.14267579 -0.05604043 0.18488237 -0.07211785 -0.19425608 0.4026049 0.07022047 -0.017807737 0.32246536 -0.02006253 -0.18406639 -0.037507046 -0.082307145 -0.11799019 0.20925646 -0.19786751 0.022463359 -0.084802516 -0.19965233 -0.2770991 -0.09383138 0.035985842 -0.03192061 -0.1087838 -0.014522518 0.0591481 0.01932441 -0.10504158 0.2678953 -0.033532087 0.027114943 -0.03605695 -0.18195865 0.013042411 -0.052595682 0.21375737 0.12212619 -0.15132205 0.12797593 -0.12216929 -0.008034493 0.15373753 -0.081318155 -0.20772608 -0.14516428 0.050929215 0.40412417 0.0032359578 -0.22801393 -0.101381354 -0.062147014 -0.2636856 -0.16465129 0.27571258 -0.2492125 -0.06940285 -0.22767726 -0.121730335 0.021551661 0.099513255 0.11559136 -0.05204857 -0.08962425 -0.019993717 0.2260801 -0.03994017 0.32238248 -0.11407259 0.06125647 0.30190992 -0.21009485 -0.35275003 0.081708804 0.03519914 0.19828233 0.07430353 -0.15687995 -0.2377746 0.2832695 -0.20778939 -0.144134 0.092904106
this -0.051614873 -0.3473321 -0.30170742 -0.08984783 -0.09140501 0.32788637 -0.093832865 0.3987007 0.08872876 -0.110077746 -0.077060536 0.12084287 -0.12963623 0.30022997 0.2661005 0.22885934 -0.19402143 0.07503391 -0.02260858 -0.29336673 -0.0833477 0.08287989 -0.089687884 0.04587665 -0.057557274 -0.13204063 0.23268732 0.031986892 0.0762892 0.194588 0.14815456 0.16685145 -0.2925848 0.012712725 0.21662176 0.1353479 -0.18404599 -0.21793172 0.11243001 0.27026 -0.21085563 0.08809402 0.36427456 0.1862178 0.3153973 -0.12369201 -0.20292194 -0.2899571 0.4349857 0.34516647 -0.40733626 -0.31997433 0.2021336 0.063897066 -0.089453325 -0.030741883 -0.2139541 -0.08552277 0.12876025 0.056118272 0.101111576 0.08128613 0.3137233 -0.14805746 -0.0678827 -0.26272592 -0.27591622 -0.19757941 0.057279147 0.18907405 0.19172895 0.27534154 -0.3223902 0.22732504 -0.3425412 -0.36379892 0.30202994 0.19869791 0.10381386 0.2534846 0.36847135 0.058871422 0.44403887 0.050276753 0.17032765 -0.2242639 0.17099841 -0.20706303 -0.26711783 0.041647915 0.19756709 0.24245955 0.053585954 -0.2516607 0.1344476 -0.32837224 0.30281016 -0.36410323 -0.18403883 -0.0138012525
that 0.004644555 -0.34022632 -0.3965423 0.24849322 0.063570336 0.30213675 0.06138586 -0.18379694 -0.3921271 0.076575436 -0.34735602 0.21077032 -0.3703666 0.16929404 -0.1359647 0.056403674 -0.1206677 0.03141297 -0.20852785 0.15834329 0.09833246 0.08003749 0.08996926 0.33953246 -0.29614517 -0.32110205 0.22323099 -0.04299533 -0.19959246 0.029552804 0.00036588343 -0.1784067 0.3913175 -0.15578884 0.06859267 0.16782354 -0.1924429 -0.15363131 -0.05213874 0.24059625 -0.043705557 0.028876372 -0.12400225 0.19625424 0.16364527 -0.19017096 0.26381272 -0.26617905 0.07910045 0.16904996 0.09696671 -0.36219388 -0.23705086 -0.009052008 0.2276018 0.16221185 -0.015367545 -0.22565341 0.21316697 0.33137134 -0.4073748 0.35554808 0.3537306 0.0005936124 -0.12627931 -0.2985834 -0.36443555 0.16705178 -0.3845793 0.19339481 -0.33654484 0.17792979 -0.1705554 0.27498326 -0.00062727433 -0.25837794 0.1284505 -0.35061494 0.29575697 0.30332536 -0.14866202 -0.020948263 -0.17073116 0.3747506 -0.2879749 -0.31903717 -0.3088108 -0.33868995 0.042914607 0.1505448 0.2486904 -0.110022314 0.06453808 0.035967898 -0.02452031 0.1872446 -0.105291255 -0.2798378 -0.023004955 0.0043162727
can 0.25369275 -0.005268278 -0.30994943 0.13536704 0.095707886 -0.23434359 0.2470743 0.120500535 0.29531446 -0.006476297 0.105451964 -0.20355676 -0.06262328 0.09561351 0.2622122 -0.055721093 -0.21385646 -0.016922882 -0.190286 0.107121 0.035716336 0.036760118 -0.15771154 -0.123636 -0.24346088 -0.19120482 0.06490363 -0.08342802 0.18163013 -0.15955424 -0.3270821 0.094549485 -0.1041563 0.29471236 0.0133610135 0.072914444 -0.007400919 0.07876796 -0.26526144 0.10254433 0.19499314 0.05325439 0.09681472 0.17402084 -0.009008627 -0.22155784 -0.35289654 0.1103183 0.056044124 0.0045050154 -0.2422457 -0.28040364 0.032813013 -0.18096375 0.2899952 0.23690827 -0.14243281 -0.1399859 0.076512486 0.018598653 -0.2977981 -0.03921745 -0.0027568985 0.14379035 -0.20132013 -0.2057112 -0.19206351 0.22732057 -0.1937884 0.028877057 0.1279232 0.17436157 -0.1152675 0.18564756 -0.030828176 -0.13748093 0.36726114 -0.289265 0.07658823 -0.15188558 0.1837316 -0.14191101 -0.09991908 -0.13219362 0.24225971 0.11185978 0.051343292 -0.29298392 0.031976566 0.2873738 0.19495018 0.04222814 0.30175593 -0.15021217 0.11048446 -0.17560911 0.07377275 -0.12763675 0.33894053 0.027199183
in -0.009441311 -0.07110548 0.041795902 -0.10009703 -0.009651761 -0.119625054 -0.093857005 -0.18138486 -0.028413903 0.053075798 0.33314225 -0.064096086 0.09592663 0.3368663 -0.03752358 -0.056323644 0.056008365 -0.09319244 -0.013922137 0.12676966 0.20825857 -0.21182625 -0.1830081 0.2867869 -0.02269788 -0.0511035 -0.0014600254 0.045058545 -0.24723364 -0.084470555 0.2073571 0.23466413 0.043602403 -0.2064792 0.08065434 -0.08540146 -0.13096686 8.755519e-05 0.0042820466 0.30672106 0.11378186 -0.14103499 -0.23758596 0.20671728 0.10320962 -0.26337144 0.123772 -0.16869174 -0.109227836 0.021781426 0.23627345 -0.066434965 -0.28881142 0.35764545 0.22963385 0.305869 0.33169156 -0.17752156 0.15155461 -0.07938106 -0.11854866 -0.09258337 0.004173359 0.117663115 0.29982862 -0.03141486 -0.04093497 -0.060924966 -0.25159714 -0.116195686 -0.19006836 0.24834062 -0.027797958 0.10217136 0.24020794 -0.23828526 -0.001264585 -0.20001882 0.20704289 -0.14805187 -0.1563675 -0.257818 0.19000264 -0.09693869 0.32056707 -0.11559732 -0.16129407 0.030872572 -0.26999024 -0.017863667 0.09890986 -0.1933763 0.36534798 0.32388377 -0.14111614 0.10155919 0.095581494 -0.068368725 -0.06086279 0.111753814
major -0.3771532 -0.2622574 -0.32126018 -0.105198115 0.1372383 -0.10767536 -0.23147404 0.104665466 -0.3263905 -0.109892786 -0.25137356 0.24262658 -0.111645386 0.017300403 0.35811633 0.012405443 -0.41848207 -0.29146856 0.051940195 -0.19192168 0.085447855 -0.30629057 0.23096403 0.086831875 0.16773526 -0.24438047 0.42289323 0.13252793 -0.17459346 -0.16054444 0.06729437 -0.29612058 0.3915784 -0.22826743 -0.4094991 -0.12770547 0.119947016 0.005799955 -0.25296235 0.43136266 -0.0045610936 -0.20004836 0.00957202 0.2226417 -0.3096532 -0.33658886 0.29758263 0.3603444 -0.021751912 -0.3020148 -0.030179702 0.18680176 0.15702729 0.27762413 -0.44865668 0.1490681 0.24009459 0.18100436 0.33077955 0.0072329673 -0.09444572 0.07750054 -0.30976266 0.09236767 0.36269987 -0.26379618 0.15023255 -0.40679866 -0.3589561 0.03180499 -0.26590884 0.24122733 0.30771822 0.15002653 0.20317863 0.19817376 -0.35972714 0.08056232 0.08723132 0.07963963 -0.08540232 -0.33466628 -0.049840964 0.35267714 -0.018608341 -0.09674152 -0.29409468 0.19846027 -0.0761799 -0.33582222 -0.31984377 0.06029142 -0.06369933 -0.10198889 0.22460869 -0.29335025 0.13138022 0.35403126 -0.2551079 0.017129147
driver -0.47025228 -0.23149994 -0.26769754 -0.0673645 0.107486635 -0.117946 -0.44830444 0.38051987 -0.35486734 -0.3217116 0.101463914 0.26264825 -0.40874118 0.11432629 0.39251745 0.17158921 -0.037024114 -0.37250057 0.20104958 0.101552874 0.16707988 -0.31236687 -0.19882424 -0.063752145 0.11104023 -0.01950223 0.3642471 0.1108779 -0.14975482 -0.35996133 0.15365782 -0.36403263 0.32679936 -0.23507428 0.09461007 0.051160853 0.33550167 -0.1521427 -0.2531237 0.3715958 0.09852783 -0.1036775 0.14706355 0.02202889 -0.35684723 -0.23966862 0.13340226 0.09893847 -0.23785736 -0.25635082 0.2904777 0.29270655 0.01446606 0.11258668 -0.4538648 0.32077634 0.14270623 -0.29855514 0.40369838 -0.10761737 0.032006957 -0.15703754 -0.2773596 0.3358318 0.42526874 -0.27250934 0.33905193 -0.18957222 -0.36487994 -0.10243781 -0.18464161 0.16616233 0.35156628 -0.13411975 0.27903956 -0.04036049 -0.3153648 0.21227504 0.3778067 -0.1486288 -0.21982381 -0.2910893 0.053476334 0.44430578 0.30978072 0.15263733 -0.26073715 0.26549768 -0.3155286 -0.34561548 -0.40341797 -0.14883053 0.025586203 0.021494066 -0.09835976 0.011155135 -0.30624932 0.03212482 -0.245631 0.11316081
number 0.17460242 0.25742155 -0.16890782 0.14333552 -0.060903545 -0.15962861 0.20953627 -0.043877684 -0.23544471 -0.28402552 0.03240094 0.13794304 0.052373555 0.2015935 0.073494546 0.22827822 -0.2209634 -0.116424076 -0.14890938 -0.13479495 0.15015812 -0.27124035 0.15661263 0.23550108 0.12534589 0.108503364 -0.13358894 0.28632948 0.019002574 -0.081109256 -0.2241407 0.09713363 0.11395459 -0.09128759 -0.28435674 -0.28092328 0.19032797 0.15041526 -0.105209306 0.058420427 0.27585617 -0.18037531 -0.13135998 -0.042623013 -0.015486389 0.0876888 0.22111805 0.22814909 -0.032546747 -0.15485862 -0.19237666 0.2688931 -0.33819026 -0.02350919 0.11125618 0.18977375 0.29281503 -0.1405731 0.22436868 -0.15885217 -0.17318946 0.22396731 -0.2792486 0.08266771 0.20553032 -0.0013189424 0.34579664 -0.14697532 0.18420857 -0.26984218 -0.225473 0.12852198 -0.18626912 0.17563689 0.008150097 -0.08057218 -0.23147812 0.09962727 0.25475675 -0.13059233 -0.11438717 -0.0625079 0.28378558 -0.22898774 -0.06992019 0.18626635 -0.14438951 0.13007936 -0.177121 -0.22781475 -0.3685015 -0.08029249 0.28762817 0.13019066 0.09214471 -0.02888466 -0.13677283 -0.18361527 -0.19621143 0.09479892
2 -0.25250983 -0.29647163 0.12329918 -0.16057631 -0.04900474 -0.15170304 -0.0990755 0.021820955 -0.22161077 0.008160084 0.102482036 0.025255179 0.22822802 -0.036101267 0.16053456 0.19356231 -0.22536074 -0.018081691 -0.09661023 0.05337725 0.17865999 -0.22703175 -0.114414416 -0.1171924 0.25277326 -0.28790325 0.11126191 -0.23567317 -0.21403697 0.012502233 -0.17313018 0.0033760143 -0.2139642 -0.2822463 -0.24389768 -0.20045324 -0.06507191 -0.09878928 -0.14962673 0.08475886 -0.17271715 -0.28335238 -0.07649478 0.13529271 -0.34012035 -0.2555713 0.19773869 0.0336188 -0.103393614 -0.2261657 -0.09930087 0.15676488 -0.22129993 0.25967863 -0.31346744 0.2354413 0.07847075 0.07212105 0.14798908 0.21804732 0.052685574 -0.11111984 -0.23528937 -0.07893542 0.07569331 -0.103575766 -0.08961272 -0.10135086 -0.31314114 0.017944992 -0.25043818 0.05477854 0.20905897 0.41297895 0.15599585 -0.036677767 -0.18241003 -0.2945419 -0.06579766 0.25214282 -0.03216536 -0.11617982 0.03344234 -0.016960964 -0.26730865 -0.20438507 -0.054639287 0.031489287 -0.06679558 -0.08346952 0.1416587 -0.15141922 -0.04502207 -0.012652132 -0.04604505 -0.13957185 0.08324044 -0.036718294 -0.18598913 0.19261356
speed -0.11356343 -0.11613235 -0.1501438 -0.0039410843 -0.029928077 -0.15860546 -0.0114583 -0.08338602 -0.16496952 -0.2207343 0.043564577 0.13376999 -0.037254095 0.19039762 0.28023714 0.13445544 -0.1316143 -0.19448565 -0.06299011 0.15280524 0.09350027 -0.24852082 -0.12666519 0.25742233 0.15976943 0.2567504 0.16631088 0.22960798 -0.22112331 -0.16069143 0.020184172 0.0015494846 0.1141717 -0.17615122 0.010317135 -0.25075275 0.22817926 0.011743189 -0.15670241 0.20581661 0.2724115 -0.16811241 0.056064058 0.16464517 -0.102429695 -0.1403887 0.18816866 0.17199658 -0.12932542 -0.20414191 -0.11246773 0.26638904 -0.1624468 0.19377145 0.035556078 0.22729032 0.25258988 -0.10732136 0.11259796 -0.17633758 -0.08402958 0.091285 -0.13686454 0.22624303 0.222983 -0.11467748 0.20227657 0.03887367 -0.07642486 -0.14427023 -0.230547 0.15230773 0.066003904 -0.10935393 0.09810971 -0.12527491 -0.18899757 0.26784998 0.17895809 -0.20220476 -0.18503982 -0.15457663 0.087362476 0.009573085 0.15141663 0.07420232 -0.13928707 0.2075696 -0.22135614 -0.15322155 -0.20412944 -0.11570203 0.25027895 0.032502476 -0.041452516 -0.1040068 -0.003236789 -0.13381997 -0.17515776 0.14088185
an -0.26625472 0.13406773 -0.073389456 -0.077588394 -0.24043277 0.105209835 -0.13811682 0.0964128 -0.044282187 -0.034815475 0.13851221 -0.04395571 -0.22581264 0.1652013 0.33960217 0.11426667 0.05965706 -0.19551377 0.29531696 0.12456878 -0.030488476 -0.1073116 -0.23152111 0.13177362 0.10808783 0.08197916 -0.07670785 -0.19434176 -0.14381702 0.049768522 -0.018504702 -0.124692835 0.010723818 0.09020219 -0.11079521 -0.106842086 -0.002673638 -0.12044771 -0.02830335 0.1470745 0.20976661 -0.22918919 -0.22819905 -0.20009996 -0.08282527 -0.13031031 0.16656518 -0.060748823 0.13802852 -0.1724872 0.047473412 0.16196501 -0.11138658 0.11671415 0.060629144 -0.08355892 0.15252171 0.10584972 0.20382714 -0.24643584 0.10562546 -0.0789825 -0.07369825 -0.14058478 0.14764087 0.029694468 0.21223436 0.20350213 -0.08963164 -0.12027545 0.11086543 0.13845193 -0.0018513256 -0.15619633 0.19931233 -0.26529488 0.062408157 0.10546575 0.24331798 -0.1435701 -0.16474985 -0.19861917 -0.11053763 0.28266174 0.16329218 -0.16508812 0.068318695 0.061088394 0.0946685 -0.2194786 -0.00059634575 0.0039101527 -0.10292484 0.11660682 -0.23020145 0.22595824 -0.128826 -0.08659476 -0.016021965 -0.20233664
important -0.101280324 0.10785852 -0.18156281 0.11717121 0.14960676 -0.17248237 -0.2160777 0.13952917 -0.11663005 0.061277393 -0.21920206 0.0012734836 -0.238272 0.124355935 0.035782006 0.07319275 -0.16595742 -0.23406261 0.17618984 -0.048317265 0.024136351 -0.020652639 -0.26052025 0.13751559 -0.14047444 0.0020208168 -0.055338126 -0.049197298 -0.16828535 -0.049511317 -0.2814251 -0.11726574 0.21672644 0.015534369 -0.2536214 -0.206624 -0.09731224 -0.1243037 -0.07334508 0.025020225 0.19612192 -0.23191188 -0.066361144 -0.085588254 -0.18833981 -0.0065361937 0.13532941 0.059090223 0.024043646 -0.101538934 -0.18581688 0.17674159 -0.20197478 -0.018437881 -0.046093035 -0.11484427 0.17117411 0.17801808 0.264409 -0.13921995 -0.15225121 -0.01790811 -0.2281419 -0.1306867 0.14583951 -0.15338977 0.091238104 -0.07056059 -0.12041713 0.0057054977 -0.099053495 0.16869542 0.035232425 -0.2282287 -0.023271507 -0.015743993 -0.024235938 0.17359795 0.12326046 -0.066661 -0.15127434 -0.072347604 0.048888776 0.31712434 0.18449865 0.15045549 -0.057307184 -0.12020195 -0.013788436 -0.25854602 -0.10520756 0.018776927 -0.118176006 -0.18587728 -0.2522274 -0.04459108 0.0900471 0.083026946 -0.1361525 -0.15912604
point 0.017760107 -0.09958409 0.029717442 -0.18770324 0.11887567 -0.14673384 -0.22565383 0.24047123 -0.15658505 -0.15474112 0.14842476 -0.016036335 -0.23212066 0.10446831 -0.14373301 0.0067456453 0.066911995 -0.30038127 0.111356586 -0.017420478 0.05801195 0.019348802 0.011326009 0.16129118 -0.0867194 0.115433805 -0.195267 0.14418948 0.10293419 0.1032442 -0.18394408 -0.20995606 0.08821984 -0.050664812 -0.22657 -0.14249927 0.053885244 0.024821457 0.08312076 0.016996235 0.14022182 -0.13710254 0.02311638 -0.14409228 -0.092372015 0.045062855 0.21382622 0.0108785685 0.12314939 -0.0132749 0.11498367 0.17042406 -0.04661764 0.0032283866 -0.068802685 -0.028084062 0.11582447 0.11388515 0.11854391 -0.13899663 0.03672999 -0.21672359 -0.14424844 -0.032710966 0.11969361 -0.19178285 0.039068736 0.16601965 0.18789755 0.19873549 -0.15230145 0.02907897 0.29390797 -0.2907803 0.09511365 0.20022677 0.010341977 0.23298588 0.1573074 -0.06565792 -0.1202663 0.042123947 0.08666342 0.31492716 0.07848795 0.173965 -0.20616941 0.07875485 0.13475549 -0.21838242 -0.20067409 0.2517324 -0.20956501 -0.027482007 -0.1263929 0.12932593 0.07415891 0.22475956 -0.091091424 -0.15199853
difference -0.15160975 0.12877674 -0.13190514 0.093892 0.07524883 -0.06266179 0.10479388 -0.032632608 -0.22149876 -0.18734808 -0.072960794 0.1966955 -0.029526964 0.18238041 0.23124471 0.21153037 -0.21745078 -0.14865616 -0.13853289 0.14077725 0.18033813 -0.23439355 -0.0052507077 0.09681265 0.07689083 -0.02314857 0.05150661 0.09479717 -0.22784162 -0.102113865 -0.26938245 -0.04568473 0.016087726 -0.24323799 -0.18961328 -0.23060766 0.22181302 -0.16609466 -0.20893967 0.073156245 0.16351387 -0.2135771 -0.04382076 0.06957773 -0.105199784 -0.18168618 0.16028744 0.10804386 0.022113942 -0.075107634 -0.2404883 0.13924065 -0.25125426 0.14081125 -0.015791181 0.18934892 0.1556057 -0.052144084 0.08374999 -0.17778572 -0.0756639 0.14312261 -0.25548437 0.077109165 0.13801138 -0.060024638 0.25188482 0.13505107 -0.22370268 -0.13550986 -0.024009846 0.13451609 -0.039868068 -0.07575371 0.0024934206 -0.11429979 -0.1368693 0.1681674 0.18410294 -0.08428937 -0.18262799 -0.21483782 0.04825913 -0.030489711 0.22808805 0.25858387 -0.057395473 0.041614715 -0.18652093 -0.17719886 -0.09404972 -0.13464664 -0.029753124 -0.22068809 -0.068997845 -0.19167869 -0.017798863 0.028098961 -0.13489375 0.027963156
two -0.08506573 0.038055655 -0.14504117 0.22758813 0.14419559 0.06325176 0.24892943 -0.17217489 -0.1940434 -0.22427209 0.07819206 0.15647623 0.03941834 0.055473644 -0.1427324 0.10295398 -0.08200127 0.19703986 -0.27979457 0.10705744 0.1961108 -0.19412938 0.06981974 -0.004659564 0.106905006 -0.0039758803 0.028347528 0.13201256 -0.26929018 -0.16154616 -0.18872674 0.075118646 -0.19797467 -0.008755905 -0.10199851 -0.18382365 0.29490528 -0.07567203 -0.20226099 0.11710464 0.08407981 -0.18663698 -0.072709545 0.18917172 0.035475392 -0.19971251 0.04537829 0.23835719 -0.06841495 0.021604467 -0.10211511 -0.012793817 -0.15789843 0.06948085 0.00016879068 0.25325167 0.08192365 -0.2034298 -0.17486309 -0.06214509 -0.09786804 0.092696086 -0.09385282 0.088777244 0.088863105 -0.24456577 0.04690722 0.11222965 -0.2072506 -0.15880705 -0.13417007 0.13324063 0.19066036 0.18176965 0.012461636 -0.1309592 -0.057973154 -0.08823472 0.030756405 -0.09498147 -0.20018676 -0.18397948 -0.12638524 -0.14577848 0.2236568 0.16655035 -0.24251917 0.084493026 -0.085754685 -0.15406355 0.16317609 -0.11355134 0.22935486 0.15323135 -0.036039155 -0.15189704 -0.16470164 0.091976784 -0.11800436 0.20690408
has -0.24710768 0.04424311 -0.1831171 0.21450084 0.22684968 -0.025610048 0.17004935 0.071214326 -0.2697917 -0.21992293 0.040660784 0.1336631 -0.19857994 0.11646234 -0.18278684 -0.15325752 -0.16820098 0.18839268 -0.05461555 -0.00810437 0.22153868 -0.13238665 0.0008881797 -0.15893379 0.15147555 -0.27690187 0.038049623 0.12606882 -0.24622679 -0.14908165 0.1315677 -0.08775079 -0.05400804 0.16963892 0.026780432 -0.07376795 -0.006071698 -0.12501644 -0.08110856 0.20130195 0.113527596 -0.17088997 -0.017162196 0.16032207 0.028286103 -0.18223175 0.09163311 0.16835053 0.035949383 -0.052409347 0.18620226 0.059316695 0.06599595 -0.11993807 -0.09997542 0.07091091 0.10319283 -0.23352286 0.08410781 0.029747799 0.021697976 0.0013363797 -0.05495829 -0.0005369889 0.13138737 -0.15897971 0.009738998 -0.07076865 -0.30001953 -0.25175267 -0.16283438 0.10741331 0.21847971 0.08341131 0.20480807 -0.17871626 0.008558921 -0.14953704 0.022430552 -0.035125546 -0.24180122 -0.11054032 -0.08742332 0.19710566 0.13595925 0.13535301 -0.29000267 -0.15115117 -0.06665662 -0.12227286 0.17610388 -0.12773666 0.30426234 0.17591998 0.13867837 -0.183077 -0.2014326 0.2724671 -0.099650644 0.19260725
median -0.11928081 0.12753296 0.063164786 0.14311539 0.07531935 -0.09191793 -0.0279509 0.09636444 -0.2319578 -0.27961618 -0.16152981 -0.013524618 -0.22467686 0.17622738 -0.16126144 -0.14152041 -0.09581914 0.11021365 0.0983597 -0.018801311 -0.048280694 -0.20594178 0.073850825 -0.2958407 0.049725596 -0.19066772 0.26165083 0.23887339 -0.20510292 -0.07676457 0.11657198 -0.23942487 -0.122294776 0.13577369 0.17761773 -0.059302617 -0.007440498 -0.17393097 -0.1573629 -0.007776917 -0.07849647 0.12240156 -0.15557587 0.289043 -0.04187321 -0.011671692 0.009307669 0.22220293 0.06464239 -0.11754405 0.13269119 0.10620749 0.22450285 -0.051890224 -0.28251377 -0.2650911 -0.052733596 -0.18432483 -0.010412597 -0.16389436 0.14048077 -0.06593459 0.050806116 0.1043068 0.07946946 0.08307976 0.11641876 -0.2281849 -0.21577714 -0.13195042 0.20303027 -0.13692355 0.0901856 -0.0898727 -0.05397918 0.21641994 -0.23795594 0.19943388 0.0039982586 0.28313056 -0.040693518 0.08471047 -0.060242336 0.14604476 -0.16525647 0.04343822 -0.22615041 -0.018076098 -0.1566967 -0.07288808 -0.01506378 -0.23567627 0.030678783 -0.13838543 0.20316339 -0.23464786 -0.25144446 0.19425297 -0.113124944 0.1559046
incubation -0.07007911 0.32904643 0.10290181 0.1971235 -0.10563975 -0.15175985 0.21959059 -0.18970169 -0.26297078 -0.1691867 -0.09079586 0.011109813 0.22088054 0.21828467 -0.10232926 0.056219697 -0.10337768 0.1435187 0.006046485 0.2231622 -0.048407007 -0.21484146 -0.053853355 -0.08780268 0.2405167 0.07684161 0.23107736 0.27359274 -0.11806043 -0.13633479 0.052606992 -0.002325037 -0.18815686 -0.027509876 0.16485508 -0.119965374 0.02992446 -0.1170837 -0.1280987 0.051552653 -0.027201552 -0.03648636 -0.19191268 0.25328684 -0.0090157585 0.11630591 0.026985794 0.21826951 0.04673375 -0.1349949 -0.2638868 0.020386998 0.09723345 -0.021550726 -0.050875086 -0.10326491 0.07880676 -0.16031793 -0.18069111 -0.043352887 -0.1395005 0.22681494 -0.064032026 -0.005999043 0.104317605 0.2176268 0.26864192 -0.12672369 -0.13617912 -0.14426216 -0.01701903 -0.024581602 -0.23481049 -0.008667655 -0.032292932 -0.020583034 -0.14095195 0.2196828 -0.09719454 -0.11855622 -0.1095077 -0.10188851 -0.0626524 -0.048395075 -0.08330236 0.1320017 -0.26587465 -0.0013178355 -0.15223378 -0.21479383 0.0067277253 -0.24413691 0.019034293 -0.12322125 0.24562852 -0.16720958 -0.23355426 -0.059059266 -0.19529116 0.10773085
period -0.071939774 0.028798087 0.072637334 0.105578505 -0.1561755 -0.080771916 0.26431185 -0.0586058 -0.19169903 -0.16639625 -0.023427939 -0.047932263 0.020380639 0.22433063 0.012685668 0.14242066 -0.103814185 0.21178271 0.0025738582 0.17087753 0.019045658 -0.16056298 0.10457347 -0.13061756 0.010376475 0.19575557 0.2504882 0.2329694 -0.046526834 -0.22515753 0.009197395 0.07850169 -0.23833127 -0.013330603 0.11308739 -0.109503984 -0.06225825 -0.070757784 0.107013054 -0.11550094 -0.024560785 0.011451689 -0.23119664 0.20883681 -0.012014587 0.15147214 0.23666261 0.2750706 -0.20576887 -0.16246292 -0.24888557 0.13251983 0.095031396 -0.0062571727 0.042546965 -0.040177736 0.14372098 -0.2128063 -0.20855363 -0.010369986 -0.08304555 -0.11874026 -0.18935783 0.09745142 0.18510401 0.15400855 0.1871035 -0.15186206 0.0047307797 -0.14326334 0.0316159 0.14738983 -0.26076025 -0.02930603 -0.1322572 -0.10113398 -0.20601639 0.25048402 0.03639441 -0.20003326 0.066710785 0.025030563 0.0056083635 -0.05767627 -0.1740794 0.21677975 -0.24384469 0.10516959 -0.2658823 -0.11707085 -0.01918646 -0.3282879 -0.059567697 -0.07023405 0.11291995 0.0655763 -0.26494774 -0.05112316 -0.1771385 0.09050434
infection -0.059745625 0.03346358 -0.11898206 0.18753964 0.2462165 -0.1325957 -0.09665692 -0.14109106 -0.15797926 -0.17058344 0.0855308 -0.05340973 -0.22324894 -0.01913833 -0.09618726 0.25696704 0.3240603 0.11643665 -0.17124912 -0.05288575 0.027976938 -0.066466406 0.19838247 0.18040825 -0.0756214 -0.1553429 0.24332601 -0.032755014 -0.1637958 -0.119486526 0.008490079 -0.30371222 0.156226 -0.24471283 -0.15259214 -0.13290346 0.1025048 -0.27621812 0.07631405 -0.21019298 0.0033278964 -0.07400668 -0.23701575 -0.08954585 -0.24032193 -0.09043636 0.20655395 0.09269154 -0.17009485 -0.11595248 -0.07091832 0.068546474 -0.04869009 -0.08766017 -0.093074724 0.2892343 -0.040959004 0.06198568 -0.16585852 -0.1313159 0.14315538 -0.12642564 -0.19764109 -0.0499453 0.14900966 0.1946318 -0.07124247 -0.024082907 -0.21799801 0.015702581 0.032651067 0.109278284 -0.28898436 0.26958418 0.012512653 0.12573723 -0.12712714 -0.10653542 0.0883285 -0.2600192 0.016854206 -0.12942511 -0.23337406 -0.13058247 -0.10460719 -0.16346954 -0.13211854 -0.049117796 -0.02233123 -0.06740842 -0.15559928 -0.13186781 0.2553266 -0.11293558 -0.16004074 0.19861291 -0.03969043 -0.12096055 -0.0053293197 0.07307848
successive -0.04037294 -0.12467394 0.16020782 0.110865936 0.030152595 -0.00950288 0.1271051 -0.08128405 0.11691269 -0.14771415 0.031404387 -0.023599928 -0.025712315 0.06503039 -0.067426674 0.13342783 0.17774856 0.18941788 -0.21930231 0.18502755 0.09822946 0.013698611 0.07973218 0.00013794065 0.04863367 -0.23871762 0.0025827014 0.14209871 -0.20806861 -0.16195926 -0.29220113 -0.06827419 -0.21710455 -0.21397395 -0.12306894 0.00032062852 0.22881058 -0.012424672 0.22380267 -0.12227688 0.034013346 0.020973971 -0.12803684 0.006577254 -0.059014767 0.05532739 -0.016602378 0.105436355 -0.19930203 -0.017391907 -0.24633557 -0.26769516 0.025977498 -0.31606388 -0.20204435 0.053049013 0.010114114 -0.106131375 -0.17300501 0.03155164 0.042387787 0.04086891 0.04054394 0.07931622 0.164147 0.02278448 0.009723242 0.019071404 -0.062148184 -0.15482402 0.20185664 0.088643625 -0.12252163 0.13203773 -0.18882273 0.20330243 -0.18149817 -0.16716845 0.19480741 0.0020461497 0.15117036 -0.15519248 -0.1386127 -0.2098341 -0.06347269 0.2405063 0.110800356 -0.07598404 -0.017014923 -0.13979383 0.24415116 0.112924926 0.09789327 -0.22178462 -0.053446837 -0.075063154 -0.2702815 -0.0036194297 -0.090075515 0.12434809
cases 0.17192604 -0.17615098 -0.019777786 0.19654688 0.2492454 0.045140386 0.1531804 0.141303 0.106862836 0.0038831348 0.08184691 0.12200443 0.16348332 -0.15860799 -0.15372904 0.18802662 0.0028789027 0.2080684 -0.19047166 0.2259577 0.12150124 -0.09306639 0.08045899 -0.1692021 0.21791454 0.030096326 0.12712061 -0.0002982573 -0.15683396 -0.051548388 -0.30534357 -0.092415325 -0.20787676 -0.17252646 -0.009295429 0.03490911 0.16608417 -0.05290693 -0.13225928 -0.13288738 0.09326825 0.024856092 -0.018670209 0.04743339 -0.20728925 -0.0856553 -0.1962608 0.14517151 -0.2077956 -0.055532206 -0.22921494 -0.17564958 -0.23548964 -0.041431844 -0.067603804 -0.037186295 -0.0747665 -0.14297384 -0.055162217 -0.16978984 -0.16962647 0.042757567 0.087603234 0.13110854 -0.027593078 -0.17515682 0.057211045 0.16847827 -0.16644117 -0.109339684 0.19119863 0.05593682 -0.0145298345 0.15066166 0.0077262516 0.050283656 -0.19329512 -0.13155866 0.18963495 0.0013903907 -0.0101775285 -0.12561628 -0.20260577 -0.17787744 0.09839431 0.22451268 0.2149476 0.009045453 0.088492915 -0.042394657 0.12954217 0.061142933 0.185798 0.05328049 -0.12621967 -0.17024292 0.06756552 0.04556669 0.006714555 0.22066322
estimated 0.033913516 -0.031596832 -0.16418415 0.055926953 0.051340885 -0.15376468 -0.28300515 0.10636569 -0.2528037 -0.025564417 0.17417066 0.08082278 -0.0040772464 0.074654296 -0.015919777 0.05471026 -0.04285895 0.08944097 -0.002024961 0.10122173 0.09275386 -0.20668995 -0.1377537 0.21666296 0.16105992 0.041139934 0.15328512 -0.19331856 -0.2583016 -0.08172259 -0.060493402 -0.10279882 0.25680387 -0.15062448 -0.2482946 0.055459395 -0.03872094 -0.14455563 0.079355575 0.2516805 -0.11225725 -0.26701698 0.18363218 -0.035280388 -0.24988891 -0.18219355 0.30084345 0.15953694 -0.2477241 -0.2656738 -0.112682454 0.05092102 -0.16342954 -0.0066918014 -0.21079789 0.12966937 0.19126914 0.111123644 0.24842592 -0.18697236 0.08593779 -0.17968883 -0.23800457 -0.22013023 0.13863921 -0.16306913 0.20880897 -0.15562244 0.033737127 0.15438737 -0.08914654 0.11779752 -0.14290409 0.2554526 0.074070476 -0.074800886 -0.19943354 -0.19893648 0.01813844 -0.046511456 0.020575924 -0.2357932 -0.21651423 -0.07274757 -0.026779523 -0.18548305 0.012319244 0.24966383 -0.09738795 -0.18985736 -0.19491339 0.13188212 -0.016919594 -0.03402825 -0.011051391 -0.1002851 0.093783595 -0.046698168 -0.18115988 0.045746684
6 -0.07069645 -0.3139836 0.09656177 0.08511822 -0.14321251 -0.057542823 -0.23290838 -0.017207952 -0.032618117 -0.021086965 0.09407117 -0.037079092 0.01192089 0.037953045 0.16533525 0.10434195 -0.21754254 0.074047446 -0.053966064 -0.2562895 -0.092499256 -0.11767233 -0.15997879 0.27417538 0.2267717 -0.14342877 0.16628517 -0.26537672 -0.1491743 0.16991492 0.1597513 0.07257894 -0.0026914855 -0.06325654 0.09014291 0.22179992 -0.033548445 0.057842765 -0.17116043 0.18334234 -0.19831318 -0.25614184 0.25717965 -0.0944671 -0.15020786 -0.086995535 0.065933816 -0.022388251 -0.07810492 0.08530503 -0.044142224 -0.112825274 -0.072494105 0.2885827 -0.03669559 0.12955016 0.047164153 0.014665771 0.16388716 0.120728165 -0.10474411 -0.21384478 -0.21624623 -0.14454852 0.269227 -0.12997302 -0.08627215 -0.25275746 -0.1989534 -0.006911041 -0.17146243 0.2083563 -0.13148774 -0.024766684 -0.18598549 -0.2307665 -0.005115315 -0.05264293 -0.00610547 -0.0052870484 0.15983841 -0.22501597 0.29921344 0.023116795 0.03123251 -0.33805284 0.28206265 0.30931875 0.032172285 -0.17121594 0.17434448 0.17416176 -0.01572501 -0.057603244 -0.06167185 -0.13802761 0.26708198 -0.05775885 -0.16111067 -0.24130051
means 0.05162587 -0.26239285 -0.16332789 0.14709242 -0.06423982 0.20955722 -0.056654762 -0.1101163 -0.061348625 -0.106657304 0.06607864 0.047956415 -0.28724292 0.23338412 0.05491978 0.048517007 -0.19424312 0.18575591 -0.1423127 0.051568735 0.19943498 -0.082262844 -0.23636416 0.14321572 -0.1988366 -0.30097738 0.26267818 0.03277469 -0.0931866 -0.021386819 0.065231845 0.02020826 -0.023984732 0.07109028 0.099123135 0.033191077 -0.07118208 -0.16362023 -0.011207467 0.17028677 0.25899526 -0.08266918 0.086937115 0.068456784 0.118410975 -0.26132286 0.04014236 -0.00657779 0.070002645 0.12061512 -0.25901237 -0.22033723 -0.03426374 -0.016187184 0.29357436 0.019536894 -0.0072589926 -0.25287068 -0.022616269 0.31076333 -0.19724107 0.13608202 0.16212425 0.04672231 0.11866473 -0.16035567 -0.30950308 0.016153153 -0.2950938 -0.047690738 -0.099123135 0.24348965 -0.0892128 -0.1335539 0.0013663815 -0.17756477 0.20096707 -0.05983997 0.16958112 -0.10673767 -0.001776207 -0.10219061 0.07816769 0.012194157 0.2391421 -0.29244813 0.12784328 -0.113805175 -0.20911385 -0.21540865 0.26955852 0.10489177 0.17311817 0.021203917 -0.073850095 -0.18644273 0.030826386 -0.11030283 -0.018903755 0.12972686
spread 0.1872419 -0.24404564 -0.1793446 0.15688698 0.12957872 -0.18436664 0.14896943 0.194173 -0.008461264 -0.19989936 0.11302184 0.011315332 -0.01564946 -0.03515854 -0.10953865 0.14737278 -0.11784054 0.27287441 -0.15659447 0.164122 0.21470684 -0.057570044 -0.17468888 -0.10739741 -0.08365786 -0.20140497 -0.09448012 -0.10043424 -0.16462702 -0.16638525 -0.20708643 0.058831286 -0.052512508 0.20428309 -0.1349022 0.10352318 0.030965358 -0.006542632 -0.18819457 0.23856632 0.13240483 -0.057601668 0.1270026 -0.023248402 -0.060244918 -0.14469157 0.036583208 0.14345777 -0.065687165 -0.06649625 -0.15603553 -0.19325419 0.11797205 -0.0016388955 0.14689155 0.16419676 0.12111502 -0.15394081 -0.0009868458 0.23366186 -0.19160812 0.21991356 0.1627298 0.12355751 0.1138127 -0.11933264 -0.32677594 0.06056682 -0.11785434 -0.27683657 -0.058534175 0.0045915414 0.017134508 0.1098734 -0.17807022 0.14051017 0.17004521 -0.29930684 -0.0141939465 -0.08074047 -0.15624218 -0.16943252 -0.115602545 0.076134 0.19850513 -0.07738752 -0.050933804 -0.2806618 -0.052721884 0.02338519 0.23993823 0.12722844 0.1591844 0.20778424 0.05781701 -0.13892214 -0.011184438 0.01626737 -0.07587045 -0.03153731
faster 0.23567249 -0.24606262 -0.09635457 0.22537865 -0.053634416 -0.14488228 0.21791351 0.17295852 0.06046023 -0.09861715 0.18789113 -0.030000892 0.08487505 -0.046759613 -0.022740474 0.18487029 -0.031182745 0.26990014 -0.19529484 0.24910633 0.09273638 0.016372016 -0.21647699 0.10113698 0.06901765 -0.04268762 0.010357862 0.03214029 -0.017907595 -0.18020582 -0.20503199 0.22837994 -0.0040749838 0.1219282 0.005818777 0.10025202 0.0547937 -0.2205243 -0.14493209 0.061828885 0.17064692 0.045845084 0.2965734 0.12627822 -0.0025656035 0.22178894 -0.18346854 0.09838675 -0.124827966 -0.20330925 -0.1648373 -0.08920161 0.11084287 -0.23016521 0.15339474 0.07072014 0.06689335 -0.17026527 -0.026649969 -0.049648944 -0.24371777 -0.10292104 0.0780962 0.031655993 -0.22926746 -0.113203816 -0.05485053 0.1792073 -0.2254375 0.021352587 0.14866267 -0.014201796 -0.2847147 0.2952315 -0.06629914 0.13108037 0.15308365 -0.30686992 0.2693095 0.029608302 0.028491309 0.08675194 -0.17977461 -0.06427445 0.22734529 0.20246768 0.14311822 -0.14355092 -0.089788295 0.1863651 0.13270429 -0.0018510832 -0.027829658 -0.013362085 -0.010116881 -0.13846757 -0.087476455 -0.118266456 0.076562755 -0.038024217
further -0.18165366 -0.070695914 0.14758211 -0.062388062 -0.027060235 0.074180655 -0.14755858 -0.027394377 0.017736724 -0.049223408 0.091144994 0.11899543 -0.17054011 -0.06733717 0.09819179 0.09792746 0.07792813 -0.044253033 0.20789412 0.051652003 0.09015316 -0.038167812 -0.13805817 0.1757652 0.020818423 0.16911446 0.13960426 0.09516417 0.006325269 -0.13181646 0.18583779 0.1707928 0.20124483 0.07393946 -0.009154187 -0.043801364 0.21589397 0.018256884 0.0035550667 0.22223175 0.17427601 -0.15777849 -0.18647586 0.0999551 -0.15715325 -0.15957084 -0.03399798 0.07123842 0.08494428 -0.003992627 0.2541479 0.0057797395 -0.014938868 0.17837846 -0.20900916 0.22847691 0.18926294 -0.14876589 0.20825301 0.022859685 0.01361344 -0.06878264 0.0915207 0.13417456 0.13786942 -0.05449485 0.18709809 0.11284544 -0.2462183 -0.06540843 -0.18587904 0.03908022 0.057662435 -0.1725009 0.08078 -0.013017557 -0.17087652 0.15793301 0.05619501 -0.18390965 -0.009645527 -0.085990034 -0.16951767 0.26330474 0.10052249 -0.21991801 0.20221245 0.07688153 0.047478333 -0.16337258 -0.2365759 0.110551305 0.20297472 0.21455781 -0.2083207 0.1111742 -0.11466543 -0.068092935 -0.120999865 0.020079589
first -0.005634192 -0.13363877 -0.053816207 0.2678106 -0.09598191 -0.059916202 0.032811232 -0.07115583 -0.11548205 -0.05724769 -0.11132617 0.23367663 0.13249698 0.053649463 0.16423677 0.13178541 -0.21249978 0.1422872 -0.20300665 -0.13284624 0.06607969 -0.027127292 -0.21343276 0.26819956 0.101562686 0.26165625 0.030829422 0.026896685 -0.08629541 -0.12880605 0.03836099 0.048305612 0.10426073 0.08938688 -0.26746854 -0.015304491 0.0607056 -0.045849018 -0.047139928 0.12082742 0.060908724 -0.12385496 0.030376028 0.15054 -0.044474166 0.04957566 0.103280626 0.100233324 0.078837894 0.0664182 -0.1380281 0.14458817 -0.09771429 0.15704809 -0.004322721 0.22268474 0.083460175 -0.17936091 0.14805853 -0.04156759 -0.27056494 -0.11975459 -0.15050972 0.005346758 0.28157955 -0.09443297 0.12483452 -0.0919309 0.087329045 -0.12677543 -0.22934313 0.019821553 -0.2953481 0.088582054 -0.21572651 -0.17924133 -0.14182869 -0.052930474 -0.07122544 -0.0056181103 0.069444016 -0.1313036 0.2512268 0.004336131 0.07657783 -0.060318675 -0.012339214 0.00059635926 -0.11667629 -0.22466421 -0.0711668 0.115092106 0.2341362 -0.058463044 -0.09339602 -0.10929035 0.19569574 -0.1645076 -0.18150945 0.14778924
illness 0.0049742367 -0.014565906 0.066101365 -0.07425604 0.064565726 0.06334285 -0.21550316 0.32087773 -0.21518834 -0.08665858 -0.07170965 0.11275675 -0.2955967 0.1575115 0.31768325 -0.14084224 0.05999174 -0.005060638 0.10567111 -0.14522481 0.09265572 -0.12180418 -0.0567214 0.13573767 -0.1939075 -0.2052937 0.29813474 0.1373133 -0.030450054 -0.08977123 -0.08692545 0.015281581 -0.06292189 -0.26857057 0.115613244 0.11420107 0.052527048 -0.028839923 -0.25819364 0.029584 0.004365827 -0.15967706 0.32395047 -0.058157712 -0.28768975 -0.07710717 0.20297915 0.030276423 -0.04675266 0.1453876 -0.024639642 0.20436898 0.20502202 -0.050566554 0.2065181 0.060176764 0.058488682 -0.24532214 0.008965294 0.29241502 -0.21215531 -0.051566005 -0.17616118 0.23346786 0.0705833 -0.17356859 -0.08221911 -0.07982346 -0.061873037 -0.16418266 -0.21114437 0.11064485 -0.047940724 -0.19924998 -0.12854017 -0.2132983 0.17848215 0.13350382 0.056881495 -0.08331392 0.24730775 -0.093624316 0.2310888 0.08277799 -0.007049625 -0.02369853 0.11335649 0.19543137 -0.19954316 -0.016120296 -0.057838663 -0.02396411 -0.2232492 0.12839173 -0.29594943 -0.0058587384 0.10130565 -0.13335082 -0.23291783 -0.1522152
or 0.046132635 0.13258266 0.14993292 -0.21240133 0.023949781 0.11924296 -0.13008583 0.01597998 -0.035473686 -0.06513765 -0.27322385 0.27339205 -0.124522135 -0.031110002 0.13044223 -0.08588449 -0.04770986 -0.25018445 -0.08544356 -0.20612967 -0.07035761 -0.22354995 0.26424253 -0.03190662 -0.004541862 -0.04876046 0.3454118 0.17660765 0.05651098 -0.15649192 -0.3286749 0.034797817 -0.012362954 0.081717774 -0.27228478 0.03242754 -0.0022430937 -0.13421327 -0.2119776 -0.12465071 0.1989068 -0.16946055 0.32119155 -0.060520194 0.07361521 0.030006869 0.30284292 -0.078268595 -0.03473367 0.008034083 -0.0521173 0.23845403 0.18169129 -0.053813513 -0.08703385 0.20705752 0.08709243 -0.13499707 -0.14245269 0.2605201 -0.2346821 0.12270897 -0.029948808 0.15461726 0.18740584 -0.24850555 -0.027043499 0.1672606 0.09436451 0.009721121 -0.12613437 0.038863465 0.14885513 -0.08462592 0.004744195 0.011432419 0.029277077 -0.2162657 -0.08670569 -0.18965155 -0.061847705 -0.23454605 0.26143783 -0.008479148 0.056812756 0.29135564 0.10817029 0.11293988 -0.23299395 0.17433953 -0.13263862 -0.033512224 -0.20033899 -0.11142752 0.020982035 0.09037778 -0.13674003 -0.07053283 -0.13784918 0.19215932
potentially 0.21838693 0.3198741 0.23782097 -0.17411005 -0.22176827 0.33162162 -0.09799796 0.03856781 0.21968396 0.2505977 -0.225415 -0.075095676 -0.058207173 -0.07844313 -0.12078298 -0.26554203 -0.0021904293 -0.2077723 0.1369812 -0.11710092 -0.105338074 -0.2709781 0.097419254 -0.17873621 -0.039898887 0.05991262 0.30495137 0.1861585 0.27647266 0.14668483 -0.15503973 0.31859717 0.15333927 0.1529566 -0.0015727624 0.10260432 -0.16127045 0.1405277 -0.053795297 -0.20266852 -0.060201462 0.09728857 0.28892174 -0.14129034 0.2432402 -0.08633595 0.27471292 -0.1717358 0.12469726 0.12263776 0.064285636 0.07609034 0.08715747 0.12081252 0.07651666 0.26512924 0.16875121 -0.087098815 -0.31187844 0.1959449 -0.30530536 0.057112813 -0.095076405 -0.09529072 0.028196469 0.026991682 -0.091637775 0.2149021 0.036731638 0.18348731 -0.17661844 -0.027035903 -0.018425258 -0.087042004 0.30848116 -0.09924564 0.22021699 0.040237688 -0.18107699 0.21750706 0.032737397 -0.263534 0.2626091 0.10741383 -0.19494155 0.01343394 0.30657673 0.3082003 -0.20115004 0.2874344 -0.105637446 -0.18096326 -0.31618613 -0.117701255 0.1356273 0.26452345 -0.25637254 0.013387148 -0.09758 -0.028623533
pre 0.13714185 0.22801223 0.20209078 -0.27819055 -0.18866912 0.15569039 -0.17758742 0.13334851 -0.021982592 0.043329675 0.020295467 -0.10407009 -0.2463645 0.06622735 0.065525085 -0.18269908 0.18819615 -0.20498346 0.28893623 -0.058620464 0.086103365 -0.1873175 5.2147963e-05 -0.05995494 -0.044361204 0.050954472 0.26419592 0.26888314 0.07897157 0.050735828 0.09633855 0.1660818 0.03065938 -0.27749693 0.1641233 0.09712593 0.07521487 0.2793524 -0.15915123 -0.07605263 -0.112581484 -0.20446922 0.19846067 -0.039362952 -0.07684484 -0.15783817 0.27515844 -0.06801995 0.08491283 0.14629593 0.305989 0.05581608 -0.09792515 -0.062585324 0.22203612 0.2212002 0.19685636 -0.23735476 -0.15852556 0.0034298045 -0.16656792 0.116427384 -0.10638617 0.0668148 0.076409176 -0.16345786 0.011599967 0.23413934 0.0056815324 0.1301096 -0.2465606 0.0041280137 0.029372897 -0.13050857 0.15564531 -0.3234492 0.20823453 0.119570725 -0.07799813 0.0034686185 0.17003998 -0.16866714 0.1564305 0.13007817 0.044942107 -0.03278046 0.25877127 0.23140424 -0.10291302 0.12892531 -0.21575494 -0.34520358 -0.13983564 0.13710044 -0.2919356 0.22924657 -0.24683154 -0.13657391 -0.193903 -0.19053783
symptomatic 0.023509992 0.19382328 0.25974432 -0.26534954 0.084658325 0.16834567 -0.13932006 -0.072916575 -0.129946 -0.20321889 -0.036773633 0.23124392 -0.12152699 0.025558183 0.23906255 -0.022766188 0.21314216 -0.22162682 0.17830461 -0.03405672 -0.018962594 -0.0958896 0.08685723 -0.17133963 -0.009932809 0.13821164 0.28491846 0.07399277 -0.101759166 -0.057435438 -0.12262371 0.047596987 -0.045269087 0.18389392 -0.1824417 0.12618376 -0.048199855 0.16639306 -0.13254718 -0.14407699 0.24515387 -0.27346882 0.22522743 -0.18930209 0.0021491256 0.04349366 0.22454168 -0.12429138 -0.18809435 -0.035952795 0.29482675 0.2167575 0.14695574 0.06167524 0.048032258 0.2146349 0.06007019 -0.16877249 -0.19552465 0.08748628 0.10656878 0.2564526 0.26066718 0.1552939 0.27229765 -0.2580508 -0.008331911 0.29423502 -0.08884113 -0.0037561732 0.004695362 0.09543754 0.14177966 -0.107252486 0.046166394 0.14409417 0.05790088 -0.021888975 -0.12348661 -0.29406333 0.016114535 -0.07062379 0.17331874 -0.014049091 0.0558661 0.015582561 0.05719231 0.088493675 -0.13145144 0.12109122 -0.13990258 -0.03855027 -0.12414217 0.09377588 -0.06784653 0.27059773 -0.26389092 -0.21500713 0.054314177 0.05281672
–transmission -0.02539414 0.044288617 -0.12309533 -0.17116953 -0.023470799 -0.20980506 -0.011598894 -0.007623803 -0.14015895 -0.18517794 0.0543773 0.017520493 -0.09579411 0.27408296 0.08202108 0.058428165 -0.16313808 -0.18227397 0.022359056 0.19827282 0.24717122 -0.24260455 -0.19307685 0.14039625 0.042711593 0.248704 0.22190735 0.25513276 -0.08536799 -0.10257325 -0.073993534 0.043533668 0.21634462 -0.2658232 -0.01962127 -0.3140811 0.13426362 0.09521049 -0.15493765 0.22016305 0.2267239 -0.19697006 0.11991963 0.20598745 0.0036985811 -0.18491007 0.22254793 0.18395633 0.063124605 -0.06731521 -0.11926045 0.14829642 -0.24807218 0.2138794 0.03565027 0.2675383 0.23557463 -0.08059072 -0.010850237 -0.15799484 -0.22687328 0.21972294 -0.19658117 0.1757845 0.2166093 -0.16838515 0.2672845 0.107703015 -0.13229956 -0.0058981497 -0.26948577 0.07560887 -0.013970998 -0.1581396 0.21069568 -0.2078526 -0.109388925 0.2548727 0.07803474 -0.06862298 -0.13072829 -0.2077012 0.16977267 0.13396537 0.22521918 0.11128177 -0.07551845 0.31195527 -0.15382057 0.036655903 -0.3060383 -0.04992028 0.017918412 -0.06933859 0.0059590796 -0.031287253 -0.07631256 -0.012340902 -0.24838795 0.15635009
before 0.28452626 0.23467274 -0.2443393 0.21019608 -0.32078987 -0.22300592 0.07379676 -0.22608931 -0.17734757 -0.18036751 0.18555056 0.19005178 0.1504753 0.2349341 -0.13187644 0.1153661 -0.09914645 0.20597652 -0.29877195 0.09628352 0.11020466 -0.1571072 -0.0024457797 0.2018917 0.2482937 0.22243342 -0.01997885 -0.055726457 -0.18529858 -0.1864789 0.0107994415 0.1375037 -0.03555071 -0.2868385 -0.17407627 -0.26245123 0.07661862 0.011933081 -0.13100208 0.13215983 0.22106871 -0.14511366 -0.00786899 0.12847774 -0.045822196 -0.19824302 0.27022517 0.26322606 -0.29556924 -0.21802974 -0.041636374 0.18412912 -0.29841834 0.28961056 0.23257093 0.29710063 0.15328996 -0.21951996 0.031483162 -0.20017855 -0.19165908 -0.07497927 -0.2843871 0.10778342 0.13325569 0.058629446 0.19692291 0.3080884 0.12368833 -0.20328015 -0.20111915 0.17032605 -0.20355968 0.28030297 0.12983783 -0.0963896 -0.22782423 -0.05821116 -0.0029187177 -0.20348765 -0.22186236 -0.18179771 -0.012824102 -0.24109231 0.0814457 0.14876735 -0.008274858 0.23490919 -0.23984455 -0.22774531 -0.11524 -0.07029621 0.11245832 0.2717423 0.24081716 -0.09341111 -0.07829369 -0.12512058 -0.13906473 0.08331281
contrast -0.26879135 -0.24000253 0.13731702 0.3067769 0.26303023 -0.00519479 0.09060398 -0.18899563 0.14617692 0.025650611 -0.11050871 -0.0050386395 -0.2333158 0.1281501 -0.29274213 -0.32678217 -0.14859992 0.27492386 -0.13475907 -0.08973666 -0.0014842353 0.0043524723 -0.08736378 0.109112985 -0.16151565 -0.10754821 0.22584994 -0.12816359 -0.103972346 -0.046186145 -0.08004116 0.22543271 -0.13279524 0.30375013 -0.011347083 -0.08783577 0.13286144 -0.08526509 0.08868689 0.10549855 0.13209362 -0.07911519 -0.08830778 0.07854491 -0.09086788 -0.23156194 -0.15728256 -0.05275741 0.026355185 0.1768596 0.14719503 -0.112139836 -0.13474296 0.13032895 0.027872227 0.13896425 0.19339639 -0.18566294 0.15673643 0.29080123 -0.1802342 -0.043264516 0.08055899 0.06479237 0.07963387 -0.19136307 0.018467527 -0.23026982 -0.24690925 0.007213204 -0.25053313 0.22536522 0.017338797 -0.17289743 -0.14775531 -0.14820823 0.03814287 -0.09893098 -0.07926733 -0.23491322 -0.055577185 -0.2097504 -0.0984638 0.23207575 0.20494536 -0.31890824 -0.014093889 -0.022248896 0.08652459 -0.12130183 0.020238986 0.22444308 0.2768063 0.20912753 -0.28427947 0.14581966 0.16742313 0.34577575 0.054569006 -0.038492423
we -0.23772945 0.086057134 -0.03754204 -0.005295455 0.16129424 0.20796591 -0.21487029 -0.26750737 -0.042481698 0.22630532 0.06682944 -0.15878733 0.018373217 0.25266463 -0.18037592 -0.16546921 0.22518463 -0.17367598 -0.030342752 -0.14380236 -0.064094976 0.12448746 0.014147537 0.20145711 0.010809246 -0.31697276 0.02514131 0.06131863 -0.1754768 0.11315574 0.04638007 -0.0076607293 0.16993794 -0.21161212 0.19377121 0.2104059 -0.17636624 0.062671006 -0.18282208 0.27558136 -0.288446 -0.056543965 -0.17326096 0.2434164 0.05666212 -0.23910724 0.036931206 -0.2520555 -0.11096921 0.24679036 0.28171337 -0.2838275 -0.2155 0.14213869 0.20830308 0.17955521 0.07022409 -0.19801337 0.2570053 0.2596593 -0.26830748 -0.08246419 0.076872185 -0.17676973 -0.017399643 -0.17118737 -0.11570284 0.11310152 -0.18109174 0.008768224 -0.21589914 0.26307148 -0.21472958 0.15314817 -0.173114 -0.27750114 -0.07793261 -0.24883638 0.30694616 0.11137704 0.100220665 -0.07604736 -0.05176784 -0.0019429757 -0.15845934 -0.20937602 -0.1549918 -0.14299339 0.08381497 0.18188688 0.12389213 -0.03372999 0.088741474 0.20791921 0.03939513 0.22149922 -0.033771608 -0.18339328 0.0828668 -0.0068404865
learning -0.26548946 -0.27040765 -0.19527745 0.24812259 0.03878608 0.19788155 0.17744972 -0.25628296 -0.09973214 0.26737744 -0.18663505 0.17523679 -0.13944325 0.06689206 -0.111744836 0.006282646 0.027391244 -0.01363405 -0.26644418 -0.09348202 -0.02210395 0.2446529 0.12472755 0.27294332 -0.20454444 -0.24513347 0.3069861 0.28614485 -0.30491698 0.041758712 -0.21863738 0.1397501 0.10278569 0.1986277 0.113208026 -0.030702876 -0.2559953 0.015365478 0.25850266 0.10205443 -0.025934711 0.19896907 -0.07865812 0.00035751177 0.14828481 -0.18944384 -0.16336706 -0.1705948 0.22478119 0.1864078 -0.05463986 -0.16601346 -0.24102943 -0.1700342 0.18062599 0.09870706 -0.021522464 -0.2620138 0.30425382 0.25021774 -0.16553828 0.23720998 0.28698567 0.059968818 -0.3059329 -0.22160548 -0.08755355 0.1703829 -0.17514029 0.26978892 -0.21936442 0.18358777 -0.2966511 0.18693082 0.1568615 -0.27460706 0.12855728 -0.066103935 0.22117825 0.13653046 0.08174364 -0.28323612 -0.011737452 0.049065612 -0.06890273 -0.25480914 -0.16053325 -0.12733977 0.03299678 0.111886635 0.23314264 -0.065944165 0.22385791 -0.18941517 -0.12751734 0.056126263 0.00388201 -0.23712185 0.1904126 -0.108656384
there 0.017805021 0.12042886 -0.20294125 0.13446389 -0.061379004 0.044195965 -0.15433362 -0.24135955 0.043979645 0.15172085 -0.15577988 0.07893601 -0.28950414 0.27402386 0.14478576 -0.16940822 0.049038295 -0.23699199 -0.09827145 -0.17090072 -0.13265781 0.15947007 -0.03719431 0.24777608 -0.24840133 -0.30935234 0.07814458 0.032356814 0.037654456 -0.01090774 -0.13651338 -0.16334017 0.21332291 -0.08749156 0.11221538 -0.09148809 -0.16207087 0.08592552 -0.21383335 0.09528221 0.10329746 0.028314676 -0.08607379 0.3113265 -0.007940454 -0.23616111 -0.04679672 -0.11424932 -0.06111607 0.17185643 -0.19432168 -0.23302639 -0.24549706 -0.07812 0.16383712 0.2625564 -0.064417705 -0.30504856 0.32418182 0.3000891 -0.26798725 0.29421115 0.13998334 0.08632011 -0.33364347 -0.3067934 -0.24483083 0.21461914 -0.3238023 0.12738867 0.044835325 0.16149127 -0.27802157 0.26535648 -0.118383035 -0.30527723 0.08776102 -0.21442126 0.28448176 0.18775015 0.23961037 -0.057206035 0.07104312 -0.09054187 -0.081983276 -0.3112288 -0.17576453 -0.25195193 0.15088014 0.20303687 0.1497162 -0.22998886 0.11691827 -0.1482718 0.14224072 0.046552688 0.039053287 -0.26118103 0.1710277 0.17941797
people -0.012066656 -0.1841135 -0.28624994 0.2909429 -0.16987196 -0.016774818 0.24498959 -0.20429626 -0.1608614 0.2379893 -0.09296417 -0.08716567 -0.27310738 -0.06380578 0.098232314 0.2136511 -0.09210581 -0.1933133 -0.25251558 0.16260692 0.02555653 0.22969237 0.27924904 0.20795609 -0.116026275 -0.21737936 0.034812786 0.0421316 -0.22910143 -0.08159454 -0.18598694 0.1331253 0.24967791 0.06321881 0.18136656 0.2768946 -0.31629488 -0.06327115 0.09485051 0.2015677 -0.09615878 0.09194318 0.10321043 0.03186816 0.16437547 -0.073318005 0.03289715 -0.11415757 0.2110799 0.16498339 -0.018036975 -0.20463012 -0.115458734 -0.07859663 0.19409944 0.1606473 -0.10761527 -0.26120672 0.18044633 0.08129735 -0.28240648 0.2721637 0.17885453 -0.17864306 -0.18881007 -0.2547997 -0.29009515 0.26081493 -0.113751225 0.16181283 -0.20725358 0.03816118 -0.17008986 0.29748902 -0.17352523 -0.07832962 0.1422414 -0.24068803 0.13690168 0.20100945 -0.20096825 -0.14187631 -0.19783898 0.323385 -0.11438734 -0.022349562 -0.044449426 -0.21047209 0.050488494 0.28351375 0.3281612 -0.26257855 0.15296829 -0.0745255 -0.005690656 0.16464373 -0.19386002 -0.26659778 -0.039883494 -0.11283223
who 0.19636202 -0.055020083 -0.21627183 0.09977125 0.07532493 -0.15463018 0.17815202 -0.13517973 0.07722553 0.08043419 -0.30061644 0.012945451 -0.14177269 0.102642044 0.20660664 -0.113186724 -0.006398261 -0.07191672 -0.32394993 0.13347968 -0.04561098 0.0745558 0.10323551 0.29188848 -0.16636474 -0.23599294 -0.17055541 -0.14449207 0.14976221 -0.105463974 -0.27140486 -0.27472144 0.30760157 -0.010486655 0.16506547 0.050330613 -0.14442834 -0.046123665 -0.18985513 -0.023514902 0.1713905 -0.16854182 -0.12374016 0.24137999 -0.12229564 -0.1834974 0.033046942 -0.2528345 0.15848102 0.13085824 -0.12688322 -0.23749541 0.021340393 0.15064162 0.021549096 0.29840785 0.012720568 -0.13971575 0.05464857 0.31973255 -0.13825627 0.22657284 0.23634908 0.034745567 -0.21652815 -0.24855693 -0.25394037 0.26516417 -0.14865547 0.06796845 0.130008 -0.08383199 -0.1392607 0.29347283 -0.18084516 -0.0010658109 0.15047641 -0.19705738 0.13263772 0.25111702 0.15302552 -0.024361368 -0.14487623 0.05748393 -0.10469753 -0.1285516 -0.28662676 -0.24971373 0.04578552 0.31308722 0.17461716 -0.24155077 -0.0033635513 0.008895464 -0.0036405607 0.06488472 -0.054391436 -0.09505591 0.073479205 -0.09833337
shed 0.17297493 -0.21378347 -0.28594914 0.18133043 -0.21012089 -0.2668557 0.14219502 -0.04340369 0.124567114 0.021635927 0.23224565 -0.0004625116 -0.091406845 0.028667081 0.10361065 0.2607574 -0.07835226 0.122669496 -0.16068591 0.24680358 0.17381595 0.074881 0.067362666 -0.041784775 0.09322196 0.10535929 -0.0028622504 -0.2272145 -0.06796693 -0.1812743 -0.24030998 0.20644724 0.167873 0.20286684 0.13274717 0.20708182 0.14977853 -0.062251158 -0.11315068 -0.046655655 0.28730822 -0.06506696 0.29005066 0.21568763 0.05182785 0.026634024 -0.100987665 0.12642437 -0.059907798 -0.036332082 -0.27875745 0.03332839 0.13907416 0.024422757 0.17768805 0.12612098 0.004601929 -0.17665721 0.23748551 -0.023826012 -0.30347404 0.13464738 -0.02945787 0.0058893915 0.05516467 -0.14747031 -0.117059186 0.08396338 -0.12616557 -0.06588069 -0.08827883 0.04792646 -0.045147866 0.15151262 -0.00024068367 -0.17126757 0.23107441 -0.24197488 0.1865431 -0.06794502 -0.15966408 0.044120394 -0.24114189 0.2047575 0.22235872 0.092963964 0.24243234 -0.31459516 -0.13347067 0.24095206 0.31817806 -0.11195653 0.18446521 0.025463993 0.022266202 -0.20986304 -0.09810422 0.036299024 0.022470059 -0.050244506
24 -0.0292769 0.15511431 -0.18349113 -0.04352087 -0.30215752 -0.23910226 -0.13095348 -0.18381175 0.09185057 0.14529294 0.26092154 0.08168026 0.14329703 -0.08248603 -0.062225137 -0.21759823 0.23737189 -0.05067794 -0.25806072 0.020366134 0.005304941 0.12119641 -0.21167949 0.10242872 0.0022630005 0.22100163 0.088137254 -0.12632728 -0.10906467 -0.1050003 0.15232325 0.18730089 0.11213892 -0.1991502 -0.2436804 0.19653364 0.10065323 0.042840537 0.13421783 0.024001274 0.19097735 -0.17266755 0.11834562 0.18576404 -0.0688727 0.017173046 0.30918008 0.023651576 -0.16541304 -0.26775804 -0.05211033 0.13796504 0.18355316 0.22753766 0.12156846 -0.08930749 -0.025976606 0.040475983 0.12184928 0.037427943 -0.21280776 0.13097532 -0.11084739 -0.057997108 0.008909008 0.09287757 0.024458637 -0.13434985 0.28212854 -0.2776024 0.06748643 -0.018724782 0.25826105 -0.062136177 0.03758067 0.02540591 0.21677905 -0.028774735 0.008296415 -0.048852615 -0.04064432 0.18973246 -0.25745344 -0.0391664 -0.044754636 -0.01770899 0.0033458644 0.032179046 -0.16872917 0.109583184 0.28468683 0.3304117 0.036776148 0.15027823 0.119022444 -0.0794184 0.27236685 0.31135717 -0.05959006 0.24771546
48 -0.14431399 0.27984095 -0.09585331 -0.05518166 -0.32203934 -0.24558455 0.02832625 -0.03962164 -0.09575236 0.25705838 0.2740784 -0.09932748 0.01484694 -0.051264934 -0.035878245 -0.28709972 0.26579255 -0.016082259 -0.24251571 -0.093065456 -0.005013882 -0.030863583 -0.21604997 0.22306705 -0.002342599 0.2699214 0.10409812 -0.20144828 -0.07423961 0.016396608 0.2679742 0.26790282 0.11815069 -0.3003268 -0.12910464 0.27026865 0.13556619 0.021665301 0.014655777 0.20164257 -0.057437267 0.036534984 0.22388636 -0.17690197 -0.1273621 -0.030137736 0.009878225 -0.09874472 -0.23761931 -0.25869143 0.22489347 0.028882714 0.15043785 -0.015108134 0.047098488 -0.035518423 -0.14574419 0.12664165 0.15609932 0.010427342 -0.08710398 -0.057305235 0.036049835 -0.067038774 -0.17312771 0.06301061 0.011599592 0.1253064 0.23580806 -0.17120652 0.23523816 0.0569401 0.07269211 0.22147466 -0.26737422 0.19370519 0.10694769 0.060652584 -0.08593299 0.04666723 0.2519854 0.26203877 -0.19673757 0.044867493 -0.07612816 0.22366399 -0.040592324 0.17265287 -0.1320936 0.2380368 0.10136957 0.24859671 -0.31223816 0.19276558 0.16140999 -0.20237078 -0.008232734 0.007238842 -0.051820774 0.1745662
hours 0.036637075 0.23314561 -0.14144991 -0.11973187 -0.13249382 -0.21908078 0.050468225 -0.15670025 0.045731027 0.0692363 0.2626484 0.13974652 -0.06911273 -0.026250347 -0.19716763 -0.19442408 0.26054844 0.12258282 -0.22908872 -0.09832946 -0.015585972 0.08373664 -0.054889295 0.16629772 0.10487996 0.08839315 0.19375226 -0.0015191546 -0.035169646 0.092369586 0.28313008 0.1691418 0.016091475 -0.23007178 -0.07901223 0.22422597 0.1766872 0.042149335 0.2531526 0.1019112 0.009859008 0.08367242 0.015945857 -0.16487022 -0.08445361 0.2747039 -0.07135529 0.048417334 -0.21729293 -0.22781672 -0.07545268 0.18328884 0.21258172 -0.17985886 -0.025412548 -0.08169557 -0.21931964 0.15270326 0.15316124 -0.2545925 -0.021595526 -0.028949648 0.018475696 -0.17321981 -0.17624415 -0.09728073 0.22701524 -0.06650067 0.16232413 0.13844582 0.19044419 -0.017459521 -0.14573787 0.16274251 -0.09672032 -0.013184862 0.076217994 -0.13682112 0.13281368 0.045059513 0.12473489 -0.019303583 -0.14453329 0.16847865 -0.22210188 -0.10738652 -0.21010639 -0.09902785 -0.2584844 0.2750371 -0.06103672 0.1487138 0.056315966 -0.012201011 0.08392936 -0.021495748 -0.24137393 -0.15957811 -0.018853301 0.14611171
prior -0.15717664 0.22280958 -0.21313165 -0.13544627 0.13516124 -0.15297408 -0.13468069 -0.22573857 0.027628602 0.020797106 0.18936686 0.11581489 -0.032216255 -0.21649092 0.03267475 -0.060911383 0.1332468 0.030279316 -0.015111867 -0.19021143 0.020598916 0.1835245 -0.21912643 0.18547478 0.045795027 0.11347696 0.23678176 0.12514624 -0.06766993 0.1360192 0.25525758 0.17159988 0.09570092 -0.3041368 -0.25052604 0.21168356 0.0029839063 -0.1629673 0.03225213 -0.17768298 -0.044018064 -0.1614444 -0.06501656 0.19423127 -0.04436841 0.025271788 0.19051859 0.051361237 -0.14276892 -0.30144507 -0.23440187 0.1004777 0.20218033 0.14946464 -0.25948352 -0.019349555 -0.1331527 0.1692466 -0.09907859 -0.29141706 0.1745359 0.2560042 -0.17477117 -0.28885713 -0.12870146 0.16065401 -0.14023413 -0.31585026 0.10615831 0.09535211 0.22501734 -0.06369839 -0.06556596 0.20002891 -0.06672911 -0.14136085 0.03032398 -0.0008583802 -0.061680388 -0.028081844 0.22963275 0.07720175 -0.17017695 0.17160344 -0.24907626 -0.21962556 -0.29330918 -0.22474997 -0.039057862 0.10929295 0.12814172 0.1409076 0.1559862 -0.03406137 0.051102985 -0.08569871 0.21755876 0.023475913 -0.023795905 0.19179316
symptom 0.054811403 0.022167763 -0.21790078 -0.08574712 0.112712495 -0.109173395 -0.025685541 0.012707782 -0.22187819 -0.29381597 0.14832516 0.07813284 -0.18513195 0.25912276 0.21666527 -0.050437886 0.07675612 0.28625447 0.17785008 -0.0929953 -0.12293722 -0.07648752 -0.29606628 0.20627485 0.33484006 0.24142988 0.299553 0.037153058 -0.2571678 0.18685895 0.20576698 0.06540912 0.1938936 -0.13804951 0.0057539484 0.21663496 0.0006852216 -0.10194311 0.2092875 0.19979808 -0.22928447 0.21889502 0.3117443 0.10617275 0.021159798 0.24671352 -0.1597526 0.14226815 -0.21245413 -0.19232737 -0.07735368 0.0608334 0.021272637 -0.32020286 -0.099680275 0.29004356 -0.21930768 0.11833696 -0.16489404 -0.21257322 0.24764714 0.015542936 -0.029951835 -0.26691324 -0.24137646 -0.22185399 0.0037656308 -0.09825458 -0.2674651 0.27986062 0.22764803 0.035755463 -0.19242959 0.25945824 -0.026833296 -0.011009657 0.061840586 -0.017263496 0.20617643 0.14663526 0.054170303 -0.0988981 -0.18010361 0.28326812 -0.056106437 -0.217137 -0.27061114 0.0040352102 -0.26375502 0.024365779 -0.11171343 0.19927259 -0.096586704 -0.22755437 0.09270628 -0.3087748 -0.021254485 -0.20969598 -0.23209783 0.25134394
onset -0.0075609223 0.014941028 -0.2851801 -0.09789538 0.29822102 -0.06640318 0.05677282 0.1333146 -0.121576786 -0.29744512 0.17333145 0.23255041 -0.15725699 0.0022924526 0.111037605 0.296998 -0.14208594 0.20619403 0.21109965 -0.17358734 0.0031072 0.20534013 -0.21704553 -0.069296636 0.19892305 0.20444342 0.30462256 0.068558365 -0.18153909 -0.01007769 0.09796821 0.08936774 -0.042237535 -0.15902199 -0.07215042 0.121205516 -0.12343144 -0.21549782 -0.06268814 0.115667105 -0.20543952 -0.01849816 0.27793473 0.21772473 0.06751451 0.051473666 -0.1281457 0.006135762 -0.08453016 -0.23686546 -0.31266025 0.008036273 0.05725063 0.008227751 -0.29544893 0.049735174 -0.077969655 -0.07644731 -0.1102143 -0.09355287 0.29208717 0.25217253 -0.011214257 -0.2456071 -0.19015642 -0.07329251 -0.06589919 -0.2293119 0.058444306 0.32452765 0.1867974 0.065708 -0.17018317 0.326237 0.028534349 -0.31429595 -0.034832157 0.0048900647 0.06373982 -0.02444527 0.120474435 -0.23854128 0.03909619 0.240446 0.07514556 -0.16643706 -0.26650906 -0.18901372 -0.22004053 0.056350235 0.11923024 0.09900308 0.13383423 -0.27423933 -0.18876947 -0.24300686 0.14481336 -0.050894883 -0.1580848 0.22263035
at 0.0142229535 0.14818677 -0.26703507 -0.13411045 0.07855805 0.16945146 -0.15125474 0.020071644 0.014578772 -0.3016997 -0.23141758 0.20601091 -0.27219486 -0.007218373 0.28621122 0.2500007 -0.33128014 0.25794718 0.28868172 -0.1132116 -0.13016294 0.16402058 -0.054793183 -0.016890073 0.083826445 0.18604061 0.2933234 -0.23281139 0.071390286 0.17035559 0.07653158 0.002766913 0.093538605 -0.20759411 0.15528014 0.19369932 -0.04623039 -0.30530024 -0.0670337 0.10500132 -0.102478586 0.09587271 0.20301256 0.21023506 0.26107845 0.04121058 0.00608435 -0.14984855 0.025480188 -0.25664943 -0.17799628 -0.30384484 0.046121933 0.041561462 -0.0842737 -0.08080808 -0.2516157 0.03762289 -0.20423974 0.107224114 0.14160922 0.35286337 0.033303376 -0.23873033 -0.19036269 -0.0699665 -0.2528305 0.029826906 -0.005141984 0.2702645 0.21128556 0.03080864 -0.21267788 0.27151376 0.07111185 -0.09699125 0.17833519 0.08340762 -0.09336598 0.101556204 -0.050389018 0.01672183 0.030644204 0.26173672 0.2492445 -0.16222835 -0.18686298 -0.25279975 -0.15936473 0.07367416 0.06542655 0.21573624 -0.05326311 -0.22230905 -0.13371561 -0.24887137 0.14385292 0.04116102 -0.14379771 0.16619971
present 0.3299861 -0.14712824 -0.25092706 -0.045045268 -0.05531412 0.2403638 0.12682602 0.0317768 -0.21227 -0.3026756 -0.15067525 -0.009808133 -0.09122149 0.24109972 0.16264366 0.26572782 -0.26903862 0.24865979 0.1625585 -0.15017243 0.01881162 -0.122960396 -0.045460697 0.22384721 0.20570274 0.023339698 0.21521083 0.19618072 0.13961835 0.26792893 -0.00048237407 -0.04736075 -0.0060177296 0.0033988259 0.24615087 0.2539913 0.02393479 -0.29424456 0.3014109 0.10849418 -0.05432246 0.14834592 0.20199893 0.1979212 0.18101567 0.14032857 0.02190395 -0.18099153 0.14016555 0.071792886 -0.14851575 -0.25707728 0.12146248 -0.24834411 0.009183384 0.09205257 -0.24570951 -0.043216333 -0.080305494 -0.059292063 0.019539783 0.22141623 0.15347686 -0.28070003 -0.052617848 -0.27235734 -0.29947382 -0.058430396 -0.33487177 0.2400934 0.12080614 0.07361764 -0.17192912 0.19701074 0.00915517 -0.048148666 0.25500712 0.16765788 0.22303219 0.19942042 0.020694759 -0.060887527 0.06269623 0.14698957 0.35965267 -0.17859103 -0.10875124 -0.2819071 -0.24192287 0.02803943 -0.0037248004 0.22798832 -0.24913602 -0.23578426 0.18478326 -0.32670757 0.17849523 -0.17826325 -0.07706048 0.22963463
does -0.12220065 -0.2054136 -0.18711492 -0.16878158 0.040444426 0.29387277 -0.032678228 0.13225845 0.1259844 0.013020447 -0.30814892 0.0013285234 -0.11899622 0.10637314 0.19444707 0.217625 -0.265494 0.053578548 -0.0817739 -0.124853574 -0.11733725 0.13978109 0.25692025 -0.1579367 -0.075659715 -0.14836842 0.28356874 0.0053778063 0.19152041 0.097462185 0.12533846 0.07136185 -0.048170567 -0.14043671 0.04150978 0.15572013 0.2515321 -0.26931074 0.05968586 0.1298309 -0.10809121 -0.20021 0.16081032 0.053767372 0.31057388 -0.21015248 0.050506156 -0.15489285 0.25512233 0.024689911 -0.28610706 -0.28475484 0.034849834 0.009992563 0.15842232 -0.24784853 -0.04294838 0.103700206 0.2573946 0.064955726 0.11525835 0.28631786 0.24426365 -0.22297019 -0.016680736 -0.25054502 -0.27573946 -0.087505445 0.043899864 0.21573013 0.1564434 0.046498057 -0.25484607 0.18690333 -0.07336923 -0.09676372 0.09854915 -0.14648138 -0.23601487 0.21309896 -0.11838069 0.074342825 0.30955985 0.35368356 -0.0078040343 0.19036974 0.06286913 -0.044364925 -0.05240975 0.18938455 0.13194384 0.21602832 0.23374483 -0.09038858 -0.23148721 -0.19429795 0.06288608 -0.034564417 -0.2179115 0.1998742
not 0.20169236 -0.33429798 -0.13872686 -0.21011938 -0.013681046 0.15753424 -0.09667898 0.0068215695 -0.1818685 -0.18899345 0.006517659 0.2509313 -0.15732221 0.05875516 -0.09060775 0.28313425 -0.045411084 0.13395026 -0.26850328 -0.14974922 0.23603022 -0.10053381 0.10499714 0.06462911 0.06003275 -0.350266 0.2347964 0.32195175 0.07889571 0.11241295 0.15121575 -0.006674901 0.13892229 -0.3154193 0.05092094 0.22383739 0.224559 -0.30612272 0.20609987 0.156327 -0.06904041 -0.20733152 0.14564219 0.24696627 0.10125082 -0.09571965 0.25647658 0.03927039 0.02781641 -0.018619869 -0.27358967 -0.08220309 0.14164935 -0.27124965 0.06523338 0.007542845 -0.16422367 0.01575105 0.22000284 -0.1772086 0.15642697 0.3369083 0.088448614 -0.29381856 0.31828934 -0.19987014 -0.12879358 -0.012767645 -0.27204272 0.28370914 0.1318527 0.09619353 -0.27705297 0.13906206 0.010784754 -0.0729827 -0.029575797 -0.09480049 0.09893244 0.1246672 -0.09285331 -0.027086806 0.04961301 0.13270406 -0.020481758 0.053726256 -0.1221321 0.024264855 -0.046750788 0.10231974 -0.018959837 0.25798708 -0.09809823 -0.2605161 -0.14962664 -0.22284833 0.20771694 -0.24906047 -0.010170606 0.22233142
appear -0.025791435 -0.29602283 -0.15959522 -0.23661628 0.06907339 0.064874396 -0.2547443 0.22834782 -0.11532987 -0.0073704426 0.07191989 0.005184787 0.17580546 0.038148604 0.017733654 0.26510713 -0.029033512 0.1959935 -0.24713705 -0.08050918 0.009711669 -0.30232745 0.18415336 0.11531509 0.12300328 -0.27422068 0.19468921 0.03230146 0.03275176 0.07829638 0.20260283 0.1958795 -0.050867498 -0.18838412 0.0036296325 0.14156868 0.2584753 -0.11065659 0.20397869 0.28373754 -0.29254088 -0.18304943 0.2540772 0.093770035 0.0059925388 -0.10958334 0.21930291 -0.09616758 0.015358802 0.013006062 -0.26512513 -0.007212042 0.0396621 -0.03569782 -0.20639747 0.26844662 0.06536849 0.18355893 0.2221169 -0.34675175 0.27537718 0.16407754 0.07424746 -0.29208887 0.2246619 -0.22062708 -0.081780426 -0.22123168 -0.25149763 0.28351703 0.0844191 0.22634894 -0.2539385 0.20354776 -0.090119354 -0.15374781 -0.18093884 -0.061248403 -0.03466802 0.1648714 0.26461378 -0.15234658 0.09891176 -0.07313861 -0.018414527 -0.084271476 0.047604542 0.17919734 0.00985705 0.0877803 -0.24728036 0.14828007 -0.06198073 -0.20163724 0.08224077 -0.27991894 0.23016739 -0.14851771 -0.17828198 0.072699994
reproductive 0.1371178 0.02854037 -0.02167009 0.23161787 -0.041879863 0.048523124 0.07969731 -0.0968053 -0.17659639 -0.12320656 0.07299019 0.14521833 -0.07892797 0.119516715 0.27332354 0.27730018 -0.09006457 -0.022790257 -0.20030922 0.13741806 0.10298845 -0.119969815 0.12394374 0.024646638 0.13412456 0.079409264 -0.1446995 0.15422837 0.030333022 -0.14482626 -0.010734213 0.12643974 0.12583038 0.008839142 -0.19942556 -0.1360451 0.096177116 0.2896212 -0.09616025 0.11241961 -0.010904905 0.03535262 -0.19655697 -0.09930818 0.116347924 0.1379905 0.114749745 0.12798679 -0.22853793 0.08544741 -0.0009238678 0.15879321 -0.14494126 0.020805998 -0.019860996 0.10570442 0.12230473 -0.20005904 0.018540243 -0.033981934 -0.036181446 0.182657 -0.16225038 0.15629636 0.21802884 0.024428576 0.2846264 -0.14603955 0.2639252 -0.1566734 0.023497574 -0.020322032 -0.2097624 0.07535059 0.05303947 -0.096281484 -0.17346969 0.05993922 0.17984374 -0.21683903 -0.00040196587 -0.008876842 0.048780497 -0.11058526 0.11500502 0.061765786 -0.005498589 0.13354899 -0.03943965 -0.13265845 -0.21483248 -0.16869035 0.26494318 0.24270175 0.018119423 -0.21362896 -0.102302566 -0.2032788 -0.028869353 0.11187108
secondary -0.09982951 -0.32210892 -0.13364264 0.16431384 0.17443621 0.068234585 -0.27395734 0.2586169 -0.036905 -0.057453677 -0.15377377 -0.05223848 -0.010394356 -0.084068276 0.30059573 -0.041548833 -0.21493481 -0.1706506 -0.026736986 -0.14586443 -0.046224557 0.100486465 0.1785924 0.057713404 -0.26006982 0.24420181 -0.081749775 -0.056758676 -0.19061455 -0.022779265 0.063080214 -0.0066760094 0.24281596 -0.11794068 -0.16493082 -0.06199179 0.2378124 -0.031905588 -0.22542995 -0.0181207 0.07718043 0.12528637 0.10396793 -0.0971748 -0.1789792 0.13336147 0.11856488 0.09823937 -0.15694508 0.10865371 0.05004906 0.14356512 0.072901905 0.26008698 -0.015015903 0.26924714 0.13202313 0.16079661 -0.082598604 0.011724672 0.07626723 -0.2490046 -0.13545585 0.12012066 0.044343133 -0.0018387488 0.10628312 -0.23718727 0.14814293 -0.038414143 0.12788013 -0.09925412 0.056063693 -0.24152873 -0.036499828 0.18457702 -0.30842552 0.26409444 0.15750866 -0.14526038 -0.056802206 -0.17529784 -0.088100985 -0.0308422 -0.19195373 0.25956026 0.18010461 0.07369933 0.20072587 0.113831066 -0.19690596 -0.075928695 0.24068938 -0.23054235 -0.056821257 0.025086388 -0.105223104 0.0011740442 0.04005167 0.2593252
infections -0.043845754 -0.12052154 -0.16063978 0.12687539 0.23254356 -0.18239334 -0.15930803 0.15325427 -0.1593896 -0.15012175 -0.19724262 -0.10287083 -0.09914135 -0.017760236 0.16776323 -0.053560674 -0.103099845 -0.3119695 -0.13708219 -0.13195506 -0.07581963 -0.025349403 0.21461749 0.22878681 -0.3022303 -0.03800508 0.1114968 0.2705761 -0.049776454 0.0697369 -0.07078043 -0.22795026 0.26191762 -0.16605395 -0.2857112 -0.1590661 0.16286485 -0.21543574 -0.1869588 -0.060384404 0.18325132 -0.02074644 0.08960746 0.032920647 -0.24730869 0.010396092 0.24826536 0.15757225 0.016560307 -0.23728885 -0.19997044 0.21862264 -0.23368737 0.22304094 0.14432274 0.15653606 0.16172287 0.25664926 0.19394408 -0.11336335 -0.1611992 -0.1016342 -0.20787214 0.1879958 0.23108104 0.072117336 -0.073157914 -0.30746347 -0.0140539715 -0.19018124 -0.04739928 -0.006463756 -0.06356444 -0.034120057 -0.08560855 0.26609045 -0.13262653 0.2099182 0.05163957 -0.16318281 -0.2636243 -0.27124298 -0.010479624 -0.08347058 -0.08070111 0.09226453 -0.08509653 0.08194169 0.06855096 -0.01752163 -0.11164928 -0.12619086 0.32349974 -0.26541686 -0.20502862 0.07636742 0.08776908 0.082983814 -0.010996999 0.22522984
